/*
  AIfES: Configuration file automatically generated from AIfES-Converter
  https://github.com/Fraunhofer-IMS/AIfES-Converter

  Add this file to your IDE with the aifes_e_f32_fnn.h file

  Copyright (C) 2022  Fraunhofer Institute for Microelectronic Circuits and Systems.
  All rights reserved.
  AIfES-Converter is free software: you can redistribute it and/or modify
  it under the terms of the GNU Affero General Public License as published by
  the Free Software Foundation, either version 3 of the License, or
  (at your option) any later version.
  This program is distributed in the hope that it will be useful,
  but WITHOUT ANY WARRANTY; without even the implied warranty of
  MERCHANTABILITY or FITNESS FOR A PARTICULAR PURPOSE.  See the
  GNU Affero General Public License for more details.
  You should have received a copy of the GNU Affero General Public License
  along with this program.  If not, see <https://www.gnu.org/licenses/>.
*/
#ifndef AIFES_E_F32_MNIST_DENSE_WEIGHTS
#define AIFES_E_F32_MNIST_DENSE_WEIGHTS


const float model_mnist_dense_flat_weights[] = {-0.02643689513206482f, -0.07440121471881866f, -0.06428064405918121f, -0.04837718605995178f, -0.03909536823630333f, -0.04725980758666992f, 
		0.02983337640762329f, -0.06339862197637558f, -0.0008366629481315613f, -0.043306346982717514f, -0.06879520416259766f, 
		0.07303132861852646f, 0.054568760097026825f, -0.06654512882232666f, 0.06351108103990555f, 0.037949368357658386f, 
		-0.02769763022661209f, 0.039126358926296234f, -0.035170771181583405f, -0.07077822834253311f, 0.015251673758029938f, 
		0.060017041862010956f, 0.03215430676937103f, -0.0820290744304657f, -0.028485652059316635f, -0.03326481580734253f, 
		0.06121828407049179f, 0.05357392877340317f, 0.022338278591632843f, -0.03875938802957535f, 0.0066792890429496765f, 
		-0.05100071430206299f, 0.0007586255669593811f, -0.027079500257968903f, 0.026428818702697754f, -0.019623979926109314f, 
		0.02846645563840866f, -0.01420697569847107f, 0.05007033795118332f, 0.03071524202823639f, -0.027818620204925537f, 
		-0.013049200177192688f, 0.007811352610588074f, -0.07207858562469482f, -0.04120688885450363f, -0.021108560264110565f, 
		0.008138030767440796f, 0.03414780646562576f, 0.0059701427817344666f, -0.06723129749298096f, 0.0700879916548729f, 
		-0.07580730319023132f, 0.011093668639659882f, 0.02153913676738739f, -0.06431133300065994f, -0.042943768203258514f, 
		0.012952722609043121f, 0.013363920152187347f, 0.00805441290140152f, -0.04297022148966789f, -0.028968729078769684f, 
		0.0006940439343452454f, -0.02632702887058258f, -0.07861900329589844f, -0.05464998632669449f, 0.06874040514230728f, 
		-0.05089149996638298f, 0.06940334290266037f, 0.012421518564224243f, 0.057407550513744354f, 0.0564136728644371f, 
		0.07011228054761887f, 0.07528182119131088f, -0.03854997828602791f, 0.012761242687702179f, 0.05408600717782974f, 
		0.07576840370893478f, -0.009798876941204071f, 0.056159622967243195f, -0.01813686639070511f, 0.015402555465698242f, 
		0.06541421264410019f, 0.052360109984874725f, 0.06984678655862808f, 0.07604452222585678f, -0.03737128525972366f, 
		0.017518699169158936f, 0.07268541306257248f, -0.0033720508217811584f, 0.06684120744466782f, 0.02695431560277939f, 
		0.05826365202665329f, 0.03927803784608841f, 0.050389982759952545f, -0.04970706254243851f, -0.0812944546341896f, 
		-0.0322156623005867f, 0.033081576228141785f, 0.04395326226949692f, 0.04649018496274948f, -0.004721060395240784f, 
		0.07087209075689316f, -0.06156197190284729f, -0.042261913418769836f, -0.023942701518535614f, 0.009315654635429382f, 
		0.023290492594242096f, 0.009633928537368774f, 0.014328762888908386f, 0.03445357084274292f, 0.012492358684539795f, 
		-0.022967472672462463f, 0.0291808620095253f, 0.053703658282756805f, 0.07932185381650925f, 0.01838618516921997f, 
		0.0852353498339653f, -0.008961357176303864f, -0.005811922252178192f, -0.07116319239139557f, 0.04718133062124252f, 
		0.049220018088817596f, 0.05849327892065048f, 0.06996791809797287f, 0.023419104516506195f, 0.06868926435709f, 
		-0.03464306518435478f, 0.04609193652868271f, -0.059448227286338806f, 0.05087494105100632f, -0.0012195557355880737f, 
		-0.041997238993644714f, -0.026942074298858643f, 0.008459925651550293f, -0.036964770406484604f, -0.0023327693343162537f, 
		0.06949592381715775f, -0.033497944474220276f, -0.015470162034034729f, 0.07029179483652115f, -0.017305195331573486f, 
		0.008015096187591553f, -0.04314424470067024f, -0.035043831914663315f, 0.07273591309785843f, 0.007828541100025177f, 
		0.0431746169924736f, 0.044219546020030975f, 0.02068362385034561f, 0.07495556026697159f, 0.005698680877685547f, 
		-0.05628908425569534f, 0.00033470988273620605f, -0.07685290277004242f, 0.03508877009153366f, -0.009671203792095184f, 
		-0.022746935486793518f, -0.04095470905303955f, -0.06092221289873123f, 0.0833185538649559f, -0.07299211621284485f, 
		0.023407816886901855f, 0.016773998737335205f, 0.03248554468154907f, -0.014745660126209259f, -0.010110080242156982f, 
		0.024738900363445282f, -0.058463774621486664f, 0.05539572983980179f, -0.054121870547533035f, -0.0538361631333828f, 
		-0.08419331908226013f, 0.04583170264959335f, -0.07375425845384598f, 0.07690327614545822f, 0.03662155568599701f, 
		-0.07169229537248611f, -0.0071591585874557495f, -0.029325827956199646f, -0.03126649558544159f, -0.0798424631357193f, 
		0.058567874133586884f, -0.015035971999168396f, 0.0015796422958374023f, 0.0031304582953453064f, -0.049080509692430496f, 
		-0.07784111797809601f, -0.06517715007066727f, -0.06924104690551758f, 0.006545998156070709f, -0.05510806292295456f, 
		-0.04430206120014191f, 0.03417161852121353f, 0.0018961802124977112f, -0.03334561362862587f, 0.008856110274791718f, 
		-0.022948414087295532f, -0.009190946817398071f, 0.0521760955452919f, -0.03178475797176361f, -0.00120525062084198f, 
		-0.029415946453809738f, -0.05579312518239021f, 0.042164064943790436f, 0.005179256200790405f, 0.03449881076812744f, 
		-0.04130516201257706f, 0.041409291326999664f, 0.01984792947769165f, 0.04671419411897659f, 0.033907949924468994f, 
		0.04445115476846695f, -0.015081502497196198f, 0.07061856240034103f, 0.010317318141460419f, 0.026474840939044952f, 
		-0.022971071302890778f, 0.036229126155376434f, 0.030408143997192383f, -0.046752117574214935f, -0.011897534132003784f, 
		0.03030255436897278f, -0.019312292337417603f, -0.02464260905981064f, -0.00443684309720993f, 0.04487410932779312f, 
		0.01708430051803589f, 0.0295708104968071f, -0.0017095282673835754f, -0.055003613233566284f, -0.040852200239896774f, 
		0.005595669150352478f, -0.04738780856132507f, -0.05974176526069641f, -0.04262074828147888f, 0.028653539717197418f, 
		-0.08510415256023407f, -0.028844326734542847f, -0.008054986596107483f, -0.06331142783164978f, -0.056896112859249115f, 
		0.011889375746250153f, -0.06957241147756577f, -0.07664251327514648f, -0.029688652604818344f, 0.061469562351703644f, 
		0.017364181578159332f, -0.020610332489013672f, 0.003108195960521698f, -0.03777892142534256f, -0.06464996933937073f, 
		-0.04117082431912422f, -0.07481854408979416f, -0.06502982974052429f, -0.07486996054649353f, -0.08253948390483856f, 
		-0.03575670346617699f, -0.056119516491889954f, 0.05839841812849045f, 0.018263928592205048f, 0.06309498101472855f, 
		-0.08434804528951645f, 0.007282905280590057f, 0.08334527164697647f, 0.0243523046374321f, 0.08057648688554764f, 
		-0.015153750777244568f, -0.08061198145151138f, 0.035657837986946106f, -0.06931626796722412f, 0.02925536036491394f, 
		-0.026821330189704895f, -0.060923460870981216f, -0.058805130422115326f, -0.05766557157039642f, -0.0741320475935936f, 
		0.005301430821418762f, -0.04119361937046051f, -0.04907405003905296f, -0.07333081215620041f, -0.019784696400165558f, 
		0.022791095077991486f, 0.024329669773578644f, 0.0061220452189445496f, -0.0728086307644844f, 0.08272602409124374f, 
		0.02279428392648697f, 0.018742285668849945f, -0.03962906450033188f, 0.06699558347463608f, -0.06384749710559845f, 
		0.04362959414720535f, -0.06784051656723022f, -0.009818054735660553f, -0.007508695125579834f, -0.01310615986585617f, 
		-0.0024296119809150696f, -0.07114314287900925f, 0.07908279448747635f, 0.04267429560422897f, -0.06957083940505981f, 
		0.013415209949016571f, 0.032412394881248474f, -0.02740112692117691f, -0.05099065601825714f, 0.0637546107172966f, 
		0.03078184276819229f, 0.029280871152877808f, 0.027151010930538177f, 0.07441086322069168f, 0.0717337504029274f, 
		-0.02134189009666443f, -0.025219403207302094f, -0.0032011792063713074f, -0.03227723762392998f, -0.03346110135316849f, 
		0.07968955487012863f, 0.0047303661704063416f, -0.02861592173576355f, 0.017796963453292847f, 0.052235402166843414f, 
		-0.04657553881406784f, -0.07146938890218735f, 0.06994054466485977f, 0.08431445807218552f, -0.023709535598754883f, 
		-0.05147939547896385f, 0.012059330940246582f, 0.04012478142976761f, 0.04189189523458481f, -0.04104002192616463f, 
		0.06294538825750351f, -0.012188948690891266f, -0.026143215596675873f, 0.00821790099143982f, -0.002825617790222168f, 
		-0.07350816577672958f, 0.08196891099214554f, -0.05456056445837021f, 0.08461739867925644f, 0.06898678094148636f, 
		0.07004686444997787f, -0.032149504870176315f, -0.07433576881885529f, 0.05415935069322586f, 0.0028937384486198425f, 
		-0.02834448590874672f, 0.07343976944684982f, -0.07845558971166611f, 0.023598358035087585f, -0.07384936511516571f, 
		0.06009616702795029f, 0.08325424045324326f, -0.08104167878627777f, 0.030402280390262604f, 0.03729028254747391f, 
		-0.06548847258090973f, 0.01707722246646881f, -0.016360878944396973f, -0.04308589547872543f, 0.06255482882261276f, 
		0.05872764438390732f, -0.023445580154657364f, -0.08076539635658264f, 0.046041496098041534f, -0.025243423879146576f, 
		0.04509773105382919f, 0.019030727446079254f, -0.06853670626878738f, -0.0031792595982551575f, 0.06362473219633102f, 
		-0.015524119138717651f, -0.0342412143945694f, -0.019262835383415222f, 0.010673396289348602f, -0.07335195690393448f, 
		0.00828639417886734f, 0.048627473413944244f, -0.01703639328479767f, -0.020751789212226868f, -0.06744752079248428f, 
		0.01160573959350586f, 0.027950994670391083f, 0.000340782105922699f, 0.024981247261166573f, 0.09197679162025452f, 
		0.006771858781576157f, -0.05086037516593933f, 0.0025162547826766968f, -0.042586468160152435f, -0.005122335162013769f, 
		0.09130635857582092f, -0.060426197946071625f, -0.05398520827293396f, -0.03988230228424072f, -0.03673458844423294f, 
		0.0006111327675171196f, -0.009673185646533966f, 0.10091035813093185f, 0.05031328275799751f, -0.00067137397127226f, 
		-0.05193958431482315f, -0.007226567715406418f, 0.005762544926255941f, 0.04411838576197624f, -0.037905603647232056f, 
		0.08441513776779175f, 0.04912618547677994f, -0.05075405538082123f, 0.055724091827869415f, -0.04475244879722595f, 
		-0.013834512792527676f, 0.028669338673353195f, 0.009505159221589565f, 0.04097934439778328f, 0.07666527479887009f, 
		-0.07557608187198639f, -0.051976751536130905f, -0.037083208560943604f, 0.033849380910396576f, 0.05763598531484604f, 
		0.06348332017660141f, -0.004704279359430075f, 0.03160463273525238f, 0.06303232163190842f, 0.016512807458639145f, 
		-0.055030304938554764f, 0.046998485922813416f, 0.04420265927910805f, 0.06714441627264023f, 0.094155453145504f, 
		-0.06433019042015076f, 0.04578361287713051f, -0.04572172835469246f, -0.0989321917295456f, -0.063767209649086f, 
		0.07405345141887665f, -0.07795442640781403f, 0.09539391100406647f, -0.04917745664715767f, -0.05221773684024811f, 
		-0.07302586734294891f, -0.082832470536232f, -0.03772329166531563f, -0.0284817423671484f, -0.009624219499528408f, 
		-0.021397123113274574f, 0.010629426687955856f, -0.03856978937983513f, 0.0892680436372757f, -0.03497704863548279f, 
		0.005055762827396393f, 0.02384404093027115f, 0.002290567150339484f, -0.02806270122528076f, 0.0439206063747406f, 
		-0.037953127175569534f, -0.059154294431209564f, -0.019234029576182365f, -0.009960027411580086f, 0.04074057191610336f, 
		0.025879546999931335f, 0.06317445635795593f, 0.06960012763738632f, 0.08397465944290161f, 0.09495295584201813f, 
		0.020978176966309547f, -0.05203384906053543f, -0.0034568533301353455f, 0.012883295305073261f, 0.031100980937480927f, 
		0.03613891080021858f, 0.028683409094810486f, 0.03467591851949692f, 0.023220017552375793f, -0.03570445999503136f, 
		-0.018199240788817406f, 0.002875790698453784f, 0.015303841792047024f, -0.025773797184228897f, 0.014980915933847427f, 
		-0.03772813826799393f, 0.07200035452842712f, 0.0437135249376297f, 0.05384945496916771f, 0.06625816971063614f, 
		0.014925897121429443f, 0.003231256501749158f, -0.06181257963180542f, -0.08136890828609467f, -0.06169302016496658f, 
		-0.020409731194376945f, -0.06589969992637634f, -0.040451206266880035f, -0.046856485307216644f, -0.002848966745659709f, 
		0.032657936215400696f, 0.010249150916934013f, 0.04344574362039566f, -0.05253296718001366f, 0.021229080855846405f, 
		-0.04995685815811157f, 0.050886448472738266f, 0.024280408397316933f, 0.01292545348405838f, 0.02044025808572769f, 
		0.06123907119035721f, -0.040885478258132935f, 0.019286947324872017f, 0.0864458903670311f, -0.04969912767410278f, 
		-0.021663036197423935f, 0.016294024884700775f, 0.026519350707530975f, 0.08504267781972885f, -0.07780857384204865f, 
		0.026265904307365417f, -0.08224057406187057f, 0.045677848160266876f, -0.03744799271225929f, -0.009798139333724976f, 
		-0.04083453491330147f, -0.017607934772968292f, -0.018318556249141693f, 0.08340317755937576f, 0.0025909990072250366f, 
		0.07954534143209457f, -0.04500012844800949f, -0.06592313945293427f, 0.053599558770656586f, -0.07804705202579498f, 
		-0.033650826662778854f, -0.03984726592898369f, 0.0009623467922210693f, -0.07316836714744568f, 0.01593819260597229f, 
		-0.06834356486797333f, -0.04400794953107834f, -0.0014402121305465698f, 0.011769682168960571f, 0.06804854422807693f, 
		0.06034822016954422f, -0.059728413820266724f, -0.004543915390968323f, -0.05085349455475807f, -0.023276016116142273f, 
		0.04502507299184799f, 0.04122602194547653f, -0.06673687696456909f, -0.008599862456321716f, 0.021696701645851135f, 
		-0.08114609122276306f, 0.012618258595466614f, -0.007702343165874481f, -0.040390752255916595f, 0.06992501765489578f, 
		0.0816296711564064f, -0.04836222156882286f, 0.041184909641742706f, -0.07610268145799637f, 0.05868268758058548f, 
		0.023642495274543762f, -0.08459582924842834f, 0.02351519465446472f, -0.017995618283748627f, 0.034988343715667725f, 
		-0.06709929555654526f, 0.0622330978512764f, -0.015747778117656708f, 0.001733735203742981f, 0.01372983306646347f, 
		0.045261673629283905f, -0.08085121959447861f, 0.017394885420799255f, 0.0601397380232811f, 0.06846829503774643f, 
		0.015010125935077667f, -0.03607172891497612f, 0.020895451307296753f, 0.05285953730344772f, -0.016162261366844177f, 
		-0.03403028845787048f, -0.06597226858139038f, 0.007805176079273224f, 0.03151785582304001f, 0.01057714968919754f, 
		-0.08574021607637405f, 0.0847550705075264f, -0.0776960626244545f, 0.042283423244953156f, 0.021993547677993774f, 
		-0.016187041997909546f, -0.07655017077922821f, -0.012264326214790344f, 0.05468330532312393f, -0.010886035859584808f, 
		0.055741630494594574f, -0.02802557498216629f, 0.06864268332719803f, -0.03541659191250801f, -0.060503944754600525f, 
		-0.03248462453484535f, -0.07919787615537643f, -0.03236968815326691f, -0.016696937382221222f, 0.06460564583539963f, 
		0.06681215018033981f, 0.038324370980262756f, -0.017192527651786804f, 0.0725368782877922f, -0.05609662085771561f, 
		-0.006492882966995239f, -0.06236175447702408f, -0.007501661777496338f, 0.04265458136796951f, -0.0809769332408905f, 
		-0.053905632346868515f, -0.0351736955344677f, 0.04868160933256149f, -0.06063386797904968f, 0.005772426724433899f, 
		-0.08509620279073715f, 0.04472094029188156f, -0.052653729915618896f, -0.07517701387405396f, -0.05070643872022629f, 
		0.029598042368888855f, 0.07059762626886368f, 0.08409243077039719f, -0.05851977318525314f, 0.000147894024848938f, 
		-0.06729680299758911f, -0.04471961408853531f, 0.034867361187934875f, 0.016809850931167603f, -0.08345694094896317f, 
		0.05896877497434616f, -0.0013185292482376099f, -0.0546237975358963f, -0.030871719121932983f, 0.036936499178409576f, 
		0.07831832021474838f, -0.024562977254390717f, -0.022623948752880096f, -0.024743806570768356f, -0.04244879260659218f, 
		0.032581575214862823f, -0.001395687460899353f, -0.02200516313314438f, -0.0396074540913105f, 0.06499671190977097f, 
		-0.07105079293251038f, -0.011790432035923004f, 0.04688889533281326f, 0.030148178339004517f, -0.0006346926093101501f, 
		0.05540316551923752f, 0.007499799132347107f, 0.016950473189353943f, 0.037511080503463745f, -0.06195914372801781f, 
		-0.025794558227062225f, 0.055279649794101715f, 0.007063701748847961f, 0.02428099513053894f, 0.010495059192180634f, 
		-0.05426700413227081f, 0.0519922599196434f, 0.07162436097860336f, -0.02197079360485077f, -0.011535793542861938f, 
		-0.047436222434043884f, 0.08243537694215775f, -0.07731543481349945f, 0.025045953691005707f, 0.08556991070508957f, 
		0.06867148727178574f, 0.008339077234268188f, -0.053446028381586075f, -0.022301174700260162f, 0.06961246579885483f, 
		-0.07490710914134979f, -0.0494135245680809f, 0.038064368069171906f, -0.0591900572180748f, -0.07806999236345291f, 
		-0.03069503977894783f, -0.054231513291597366f, -0.07664400339126587f, 0.054607175290584564f, 0.03483793884515762f, 
		0.07642050832509995f, 0.079375721514225f, 0.05149104446172714f, 0.0011575296521186829f, -0.06418558210134506f, 
		-0.08281417191028595f, -0.030793212354183197f, 0.058257363736629486f, -0.06069096922874451f, -0.004831559956073761f, 
		0.07128199189901352f, 0.012212783098220825f, -0.05022125691175461f, -0.06840183585882187f, -0.05644550174474716f, 
		0.07418470829725266f, -0.03295786678791046f, -0.03210898116230965f, 0.05184858292341232f, -0.071659155189991f, 
		0.01043325662612915f, 0.00996052473783493f, 0.020030148327350616f, -0.037176430225372314f, -0.05056183785200119f, 
		0.031355999410152435f, 0.037269026041030884f, -0.05207879841327667f, -0.015069641172885895f, 0.050666771829128265f, 
		0.07423373311758041f, 0.03973545879125595f, -0.04767679050564766f, 0.01062709093093872f, -0.021980710327625275f, 
		-0.025394771248102188f, 0.027130551636219025f, -0.006316184997558594f, 0.08074303716421127f, -0.015345722436904907f, 
		0.04935053735971451f, 0.01213245838880539f, -0.017559461295604706f, -0.07273339480161667f, 0.048854805529117584f, 
		-0.017320245504379272f, 0.02686925232410431f, 0.02112213522195816f, 0.03425227105617523f, -0.04174322262406349f, 
		0.009149216115474701f, -0.04603409767150879f, -0.04428783059120178f, 0.08391567319631577f, -0.06504176557064056f, 
		0.009998388588428497f, -0.04835864529013634f, 0.045523159205913544f, -0.07684352248907089f, 0.03697213530540466f, 
		0.0682389959692955f, 0.08255770057439804f, 0.011587806046009064f, 0.030544161796569824f, 0.048914723098278046f, 
		0.020491182804107666f, -0.0440867617726326f, -0.002043686807155609f, 0.01908789575099945f, -0.06565684825181961f, 
		0.011127404868602753f, -0.06547676026821136f, -0.05543670058250427f, 0.0825982466340065f, -0.008026421070098877f, 
		0.019305191934108734f, -0.01509004831314087f, -0.037354398518800735f, -0.06965483725070953f, 0.022206902503967285f, 
		-0.02175220102071762f, 0.0195397287607193f, -0.07148832082748413f, -0.07211239635944366f, -0.033151187002658844f, 
		0.06432651728391647f, 0.06325911730527878f, -0.050998710095882416f, 0.016546040773391724f, -0.05501837283372879f, 
		-0.08040997385978699f, 0.031571052968502045f, -0.021214254200458527f, 0.013073652982711792f, -0.08135782927274704f, 
		0.07075396925210953f, -0.03764975443482399f, 0.04013431817293167f, -0.052140600979328156f, -0.039779819548130035f, 
		-0.02130981534719467f, 0.00608333945274353f, -0.010990895330905914f, -0.08375424146652222f, -0.039909087121486664f, 
		0.04661016911268234f, -0.02916090562939644f, -0.04608377441763878f, -0.041287027299404144f, 0.05633256584405899f, 
		0.04268846660852432f, 0.036297619342803955f, 0.05251096934080124f, -0.030407022684812546f, 0.0751805528998375f, 
		0.008265987038612366f, -0.06364722549915314f, 0.010404348373413086f, -0.05914536491036415f, 0.08083867281675339f, 
		0.02599315345287323f, -0.039426665753126144f, -0.015001624822616577f, 0.053748659789562225f, -0.07522587478160858f, 
		-0.021186530590057373f, -0.07837849110364914f, 0.01887492835521698f, 0.08125368505716324f, -0.05778314545750618f, 
		-0.024967733770608902f, -0.01948624849319458f, 0.008622206747531891f, -0.022390924394130707f, -0.008777707815170288f, 
		-0.0014625787734985352f, -0.017170079052448273f, -0.07146482914686203f, 0.061433710157871246f, -0.005779683589935303f, 
		-0.014114879071712494f, 0.024752601981163025f, 0.029779016971588135f, 0.025317251682281494f, -0.019465699791908264f, 
		0.03871461749076843f, -0.0628729835152626f, 0.012083172798156738f, 0.06314795464277267f, -0.024614762514829636f, 
		0.07058673352003098f, 0.08152130991220474f, -0.021294191479682922f, -0.0032145678997039795f, -0.05820859223604202f, 
		0.019148588180541992f, 0.054384537041187286f, 0.0610477551817894f, 0.07866328209638596f, 0.030416734516620636f, 
		3.1828880310058594e-05f, 0.07766484469175339f, -0.0603976771235466f, -0.044556692242622375f, 0.01096828281879425f, 
		0.00728529691696167f, 0.08095794171094894f, 0.08438054472208023f, 0.04554108530282974f, 0.0657493844628334f, 
		0.022952154278755188f, 0.0006472840905189514f, -0.06217317283153534f, 0.04507678002119064f, 0.03371921181678772f, 
		0.004432246088981628f, -0.04117761179804802f, -0.08160917460918427f, -0.0005982816219329834f, -0.049447543919086456f, 
		-0.02038763463497162f, 0.024335026741027832f, -0.05105163902044296f, 0.008371211588382721f, -0.04364660009741783f, 
		0.06268727034330368f, 0.05078459531068802f, 0.025132842361927032f, -0.040546927601099014f, -0.02824154868721962f, 
		0.07444927841424942f, -0.08376532047986984f, -0.06064525619149208f, -0.04842513054609299f, 0.030764266848564148f, 
		-0.04501523822546005f, -0.0041983649134635925f, 0.07451527565717697f, -0.03438250347971916f, 0.019912533462047577f, 
		0.04760508984327316f, 0.07984913140535355f, 0.03239288926124573f, 0.011862702667713165f, -0.0006789341568946838f, 
		-0.06715446710586548f, -0.042702749371528625f, -0.013424456119537354f, 0.007129333913326263f, -0.025400884449481964f, 
		0.07938387244939804f, 0.08063521236181259f, 0.012919075787067413f, 0.03492224961519241f, 0.03822761029005051f, 
		0.026591867208480835f, 0.056742243468761444f, 0.014341436326503754f, 0.06618016213178635f, 0.07272865623235703f, 
		-0.03483432158827782f, -0.04560597240924835f, 0.06212653964757919f, -0.08233579993247986f, 0.023171931505203247f, 
		0.01780489832162857f, -0.0323762483894825f, -0.04601496085524559f, -0.041180677711963654f, 0.01034698635339737f, 
		0.08045478910207748f, 0.04863176494836807f, -0.027317795902490616f, 0.05595461279153824f, 0.04557878524065018f, 
		0.042571716010570526f, 0.0139838308095932f, 0.04604145139455795f, 0.001746736466884613f, -0.04256853461265564f, 
		-0.002563171088695526f, -0.004438541829586029f, 0.02398306131362915f, -0.07706259936094284f, 0.06554890424013138f, 
		-0.0724765732884407f, -0.08283413201570511f, -0.0009170696139335632f, 0.05188547819852829f, 0.06485603004693985f, 
		0.056386567652225494f, 0.07906981557607651f, 0.04397480934858322f, 0.08098208159208298f, -0.01950812339782715f, 
		-0.04448062181472778f, 0.025002099573612213f, -0.03878291696310043f, -0.02582477405667305f, 0.03168825805187225f, 
		0.07854967564344406f, 0.004652880132198334f, -0.01703784614801407f, -0.00570833683013916f, 0.03676027059555054f, 
		-0.023813780397176743f, -0.07930811494588852f, -0.061069801449775696f, -0.058912381529808044f, 0.025481104850769043f, 
		-0.058495424687862396f, 0.07059662789106369f, -0.08285434544086456f, 0.01506420224905014f, 0.013472989201545715f, 
		0.051198504865169525f, -0.04403863847255707f, -0.07212799787521362f, -0.016588956117630005f, 0.06506658345460892f, 
		-0.06397008150815964f, -0.029055330902338028f, -0.0007118880748748779f, -0.05202564224600792f, -0.040586914867162704f, 
		-0.03459690138697624f, 0.04474588483572006f, 0.06814116984605789f, 0.04016909748315811f, 0.010494671761989594f, 
		0.06025070697069168f, -0.08326652646064758f, -0.013472624123096466f, -0.04519152641296387f, 0.07000341266393661f, 
		0.06934592872858047f, -0.08255976438522339f, -0.00622984766960144f, -0.08103417605161667f, -0.074271559715271f, 
		0.07193740457296371f, -0.0732613056898117f, 0.021000467240810394f, -0.049600303173065186f, -0.028224315494298935f, 
		-0.024530328810214996f, 0.037813879549503326f, -0.06423056125640869f, -0.06681812554597855f, -0.03829070180654526f, 
		0.07274093478918076f, 0.0799315795302391f, 0.07845383137464523f, 0.01688496768474579f, 0.051075614988803864f, 
		-0.010682083666324615f, 0.04420735687017441f, 0.07780476659536362f, 0.02335423231124878f, -0.01258540153503418f, 
		0.030806764960289f, -0.03483382984995842f, -0.039216868579387665f, -0.07705581188201904f, 0.08154848963022232f, 
		-0.05631424859166145f, 0.028132952749729156f, 0.036130279302597046f, -0.001891113817691803f, -0.08093426376581192f, 
		0.03358010947704315f, -0.017251528799533844f, -0.0655585527420044f, -0.041543010622262955f, 0.009880997240543365f, 
		0.019931836053729057f, 0.04766540229320526f, 0.07134220004081726f, -0.06547072529792786f, 0.014571398496627808f, 
		0.009486876428127289f, 0.07136518508195877f, 0.06628330051898956f, 0.05836460739374161f, -0.029583323746919632f, 
		-0.06329774111509323f, 0.06040293723344803f, -0.05079780891537666f, -0.050000280141830444f, 0.024964986369013786f, 
		-0.045514002442359924f, 0.057045988738536835f, -0.03682558983564377f, -0.07427451014518738f, -0.021544156596064568f, 
		-0.08332168310880661f, -0.08042188733816147f, 0.05654444545507431f, 0.06665334850549698f, -0.007312282919883728f, 
		-0.06714756786823273f, 0.0266443882137537f, -0.05450338497757912f, -0.016895821318030357f, -0.07322431355714798f, 
		0.027567768469452858f, -0.009789148345589638f, -0.04421119764447212f, -0.01291545107960701f, 0.014216169714927673f, 
		0.010736417025327682f, -0.006406151223927736f, 0.043198682367801666f, -0.06583201885223389f, 0.015829961746931076f, 
		0.0792776495218277f, -0.045190781354904175f, -0.0353107787668705f, -0.017917335033416748f, 0.021735861897468567f, 
		0.011200197972357273f, 0.025415828451514244f, 0.03890657052397728f, 0.06300066411495209f, 0.007681297138333321f, 
		0.03806323930621147f, -0.02059137634932995f, 0.01166333258152008f, 0.05810373276472092f, 0.008065805770456791f, 
		-0.007919400930404663f, 0.09354453533887863f, 0.05323890224099159f, 0.028665034100413322f, 0.044370632618665695f, 
		0.015841590240597725f, 0.10200168192386627f, 0.10681826621294022f, 0.07642611861228943f, -0.03958858922123909f, 
		-0.04278186708688736f, -0.11414075642824173f, -0.012400212697684765f, -0.14532315731048584f, 0.02571961283683777f, 
		0.059395886957645416f, 0.1363777220249176f, 0.015086325816810131f, -0.1560516506433487f, 0.04857592284679413f, 
		-0.0052240341901779175f, -0.09459716081619263f, -0.04359900578856468f, 0.05090383440256119f, -0.03373846039175987f, 
		-0.08236103504896164f, 0.004197227768599987f, 0.11823078244924545f, 0.0013949933927506208f, -0.06134473532438278f, 
		-0.00546232657507062f, 0.07893658429384232f, -0.00958668440580368f, 0.029224399477243423f, -0.03085419163107872f, 
		0.13748429715633392f, 0.026272306218743324f, -0.026197534054517746f, 0.13932587206363678f, 0.11751879751682281f, 
		0.008822624571621418f, -0.029448002576828003f, -0.042529866099357605f, -0.14351613819599152f, 0.06160907447338104f, 
		-0.10245630890130997f, 0.08524203300476074f, -0.0005364424432627857f, 0.006439348682761192f, 0.14639152586460114f, 
		-0.13995663821697235f, 0.16963422298431396f, 0.11011287569999695f, -0.012441549450159073f, -0.06648988276720047f, 
		0.03973083198070526f, 0.058403562754392624f, -0.09477350860834122f, -0.04069313779473305f, 0.0712684765458107f, 
		0.058079756796360016f, 0.037976283580064774f, -0.04964775964617729f, 0.009391099214553833f, -0.03240646794438362f, 
		-0.05139216408133507f, -0.171119824051857f, 0.14995107054710388f, -0.027120057493448257f, -0.016231948509812355f, 
		0.0510578528046608f, 0.17177169024944305f, -0.04827738553285599f, -0.09914636611938477f, -0.12025635689496994f, 
		-0.04427069053053856f, 0.010560892522335052f, -0.0725310817360878f, 0.04475951939821243f, -0.06522851437330246f, 
		0.10234145820140839f, 0.17016103863716125f, 0.02642551064491272f, 0.15314432978630066f, -0.02976401150226593f, 
		-0.04661667346954346f, -0.13814803957939148f, 0.09010959416627884f, 0.0910148099064827f, -0.009598920121788979f, 
		-0.11894562095403671f, 0.13355077803134918f, 0.10292834043502808f, 0.05010751634836197f, -0.010406226851046085f, 
		3.2648444175720215e-05f, -0.0385957732796669f, -0.010277990251779556f, -0.14173874258995056f, 0.17515230178833008f, 
		0.08441328257322311f, -0.0018487706547603011f, 0.037379197776317596f, 0.11821315437555313f, 0.02793036215007305f, 
		0.01979059725999832f, -0.09964237362146378f, 0.036689165979623795f, 0.060344330966472626f, -0.029833922162652016f, 
		0.012604586780071259f, -0.01944933645427227f, 0.000979779870249331f, 0.0982993096113205f, 0.10485689342021942f, 
		-0.07473175972700119f, 0.05813625827431679f, 0.009641571901738644f, -0.1054563969373703f, 0.10637429356575012f, 
		-0.02089211903512478f, -0.08795709162950516f, 0.034418947994709015f, 0.04375184327363968f, 0.027531297877430916f, 
		-0.1631728559732437f, -0.01035081222653389f, 0.020178116858005524f, 0.07715269178152084f, -0.05482260137796402f, 
		-0.1370127946138382f, 0.029816336929798126f, -0.028617359697818756f, -0.08430084586143494f, 0.06616869568824768f, 
		0.05390520766377449f, 0.06277408450841904f, -0.09157193452119827f, -0.10529521107673645f, 0.04982485994696617f, 
		0.030742798000574112f, -0.07502951472997665f, 0.006617953069508076f, -0.06035694107413292f, 0.014667021110653877f, 
		0.12633493542671204f, 0.0848575308918953f, 0.018946573138237f, 0.04755591228604317f, -0.09409300237894058f, 
		-0.10194189101457596f, -0.016483621671795845f, 0.007960646413266659f, -0.13449309766292572f, -0.05756283923983574f, 
		0.03748523071408272f, -0.10743997246026993f, -0.06653787940740585f, -0.07044277340173721f, -0.10369883477687836f, 
		-0.03146967664361f, 0.007084065582603216f, -0.14128614962100983f, 0.17459578812122345f, -0.055218856781721115f, 
		0.07914523780345917f, 0.16077247262001038f, 0.06347320228815079f, 0.06054569035768509f, -0.041636381298303604f, 
		-0.09053736925125122f, -0.0672934427857399f, -0.02326831966638565f, -0.07244843244552612f, 0.12536899745464325f, 
		0.014938781037926674f, 0.11392887681722641f, 0.05747276544570923f, 0.13106350600719452f, -0.04508090391755104f, 
		-0.07123509049415588f, -0.057431843131780624f, -0.03931566700339317f, 0.07611925899982452f, -0.041915163397789f, 
		-0.01874472014605999f, -0.11348678916692734f, -0.010471525602042675f, -0.09253814816474915f, -0.12231838703155518f, 
		-0.07876866310834885f, 0.018261373043060303f, -0.004072353709489107f, -0.010863625444471836f, -0.11094862222671509f, 
		0.135101318359375f, 0.028035718947649002f, -0.03492484241724014f, 0.05296054854989052f, 0.1456419974565506f, 
		0.03537997975945473f, -0.07185932248830795f, -0.060935162007808685f, -0.027030354365706444f, -0.014310069382190704f, 
		-0.04343382269144058f, 0.07849125564098358f, -0.031494367867708206f, 0.17130562663078308f, 0.2154034674167633f, 
		-0.0685768574476242f, -0.0218240637332201f, -0.0552576519548893f, -0.07128910720348358f, -0.04285560920834541f, 
		0.09524791687726974f, 0.00044080562656745315f, -0.19782228767871857f, -0.1136493906378746f, 0.10149366408586502f, 
		-0.07600657641887665f, -0.042504239827394485f, -0.12070576101541519f, 0.11309816688299179f, 0.009931214153766632f, 
		0.02732028067111969f, -0.16395491361618042f, 0.20811930298805237f, 0.13714191317558289f, -0.06970597058534622f, 
		-0.005970449652522802f, 0.21183770895004272f, -0.05733710899949074f, -0.09769705682992935f, -0.06806120276451111f, 
		-0.06100558117032051f, 0.09294835478067398f, -0.0935143530368805f, 0.15369030833244324f, 0.01036739256232977f, 
		0.014133938588202f, 0.16334639489650726f, -0.06070201098918915f, 0.09870640188455582f, -0.02087443135678768f, 
		-0.08715937286615372f, -0.08779292553663254f, 0.1683189868927002f, -0.06799556314945221f, -0.19338680803775787f, 
		-0.05604635924100876f, 0.1065528392791748f, 0.030480938032269478f, -0.08752060681581497f, -0.13005265593528748f, 
		0.028512880206108093f, 0.03363896906375885f, 0.02043592929840088f, -0.16778524219989777f, 0.12991902232170105f, 
		0.10894948989152908f, -0.09898921102285385f, 0.05477992817759514f, 0.021902034059166908f, 0.014461860992014408f, 
		0.015510300174355507f, -0.03150305896997452f, -0.10295858979225159f, -0.04159180447459221f, -0.10190778225660324f, 
		0.09991268068552017f, 0.09428399801254272f, -0.04384298995137215f, 0.13787898421287537f, -0.13566944003105164f, 
		0.05379742756485939f, 0.12747135758399963f, 0.08704005926847458f, -0.0731387808918953f, 0.061332523822784424f, 
		-0.018777869641780853f, -0.21581359207630157f, -0.012829046696424484f, 0.14841486513614655f, -0.012738887220621109f, 
		-0.005572765599936247f, -0.12141478061676025f, 0.06441213190555573f, -0.0027647316455841064f, -0.010669641196727753f, 
		-0.041347719728946686f, 0.022749919444322586f, 0.14170444011688232f, -0.012058843858540058f, -0.055466312915086746f, 
		-0.04448777809739113f, -0.1250481754541397f, 0.04131493344902992f, 0.03493475914001465f, -0.06926032155752182f, 
		-0.000581132248044014f, 0.01096983440220356f, 0.029530148953199387f, 0.10294396430253983f, 0.07504217326641083f, 
		0.2160310000181198f, -0.11646566540002823f, -0.01106681302189827f, 0.06713663041591644f, 0.14423541724681854f, 
		-0.02932431921362877f, -0.05270383879542351f, 0.07312827557325363f, -0.06725898385047913f, 0.05519767850637436f, 
		0.08101826161146164f, 0.004656113684177399f, -0.011343443766236305f, -0.06856011599302292f, -0.007898163050413132f, 
		-0.0490514375269413f, -0.043744415044784546f, -0.08266332000494003f, 0.15419036149978638f, 0.038406144827604294f, 
		-0.02382981963455677f, -0.015150221064686775f, 0.08919364959001541f, -0.05587988346815109f, -0.016155332326889038f, 
		-0.10200338810682297f, -0.08088032156229019f, -0.17886623740196228f, 0.008246072567999363f, -0.09618692845106125f, 
		0.1612779200077057f, 0.1414516270160675f, -0.05761140212416649f, 0.05885038897395134f, 0.11491789668798447f, 
		-0.08899427205324173f, 0.08891547471284866f, -0.045076124370098114f, 0.029248399659991264f, 0.2077413648366928f, 
		-0.013188870623707771f, 0.07196888327598572f, 0.014878958463668823f, 0.14189527928829193f, 0.05326998978853226f, 
		-0.1612728387117386f, -0.02191999740898609f, -0.05424654111266136f, 0.08641652762889862f, -0.14462178945541382f, 
		0.13091135025024414f, 0.024342551827430725f, -0.1719144731760025f, -0.07668755203485489f, 0.06335943937301636f, 
		-0.03914100304245949f, -0.09593863785266876f, -0.15153998136520386f, -0.055669207125902176f, -0.09837885200977325f, 
		-0.1284806877374649f, -0.0988178700208664f, -0.01335158571600914f, 0.07268130034208298f, 0.02469094842672348f, 
		0.031230811029672623f, 0.08956213295459747f, -0.13738738000392914f, 0.02653684839606285f, -0.06331896781921387f, 
		0.018458019942045212f, 0.1488683819770813f, -0.09135805815458298f, 0.11603278666734695f, 0.0714031457901001f, 
		0.019494732841849327f, 0.0018673241138458252f, -0.178661048412323f, -0.026405930519104004f, 0.010153047740459442f, 
		0.05501275882124901f, -0.07639434188604355f, 0.1042434498667717f, -0.0915423333644867f, -0.06776588410139084f, 
		0.03817422688007355f, 0.0018834543880075216f, -0.06542392820119858f, -0.1267913579940796f, -0.19477026164531708f, 
		-0.05454123020172119f, 0.09350007772445679f, -0.08505555987358093f, 0.05548238754272461f, 0.028505053371191025f, 
		0.18878744542598724f, 0.12393597513437271f, 0.07766100019216537f, -0.024891560897231102f, 0.1227940171957016f, 
		-0.18572521209716797f, -0.0962696224451065f, 0.08980651199817657f, -0.0506516769528389f, -0.17727069556713104f, 
		-0.08627261221408844f, 0.009253059513866901f, -0.03637372702360153f, -0.12062747031450272f, -0.004739915020763874f, 
		-0.06246137246489525f, 0.05276379734277725f, 0.04674872010946274f, -0.05304558202624321f, 0.03554019331932068f, 
		0.1302332580089569f, -0.06348623335361481f, 0.12465857714414597f, 0.16458123922348022f, 0.02603466436266899f, 
		-0.1496608555316925f, -0.08793564140796661f, -0.09065646678209305f, -0.03532707318663597f, -0.013446314260363579f, 
		0.1464940756559372f, -0.034066300839185715f, 0.05960933491587639f, 0.08651424199342728f, -0.002258057938888669f, 
		0.11553525179624557f, 0.056184519082307816f, 0.024857578799128532f, -0.11902423948049545f, 0.14415323734283447f, 
		0.11450059711933136f, -0.11785289645195007f, -0.07741040736436844f, 0.061818402260541916f, -0.01417327020317316f, 
		-0.0657399594783783f, -0.03361859917640686f, -0.10236035287380219f, -0.03244522958993912f, -0.09806975722312927f, 
		-0.07556869089603424f, 0.19633416831493378f, 0.06072014570236206f, -0.1324179321527481f, 0.11613642424345016f, 
		0.08372031897306442f, 0.02963290549814701f, -0.18993620574474335f, -0.14724072813987732f, -0.082405686378479f, 
		0.006304445676505566f, -0.0498359277844429f, 0.20114471018314362f, 0.09099312126636505f, 0.13434092700481415f, 
		0.08217014372348785f, 0.0775245726108551f, 0.04850231856107712f, 0.11607218533754349f, -0.01508813351392746f, 
		-0.07768414914608002f, 0.19013424217700958f, 0.13322509825229645f, -0.15872232615947723f, -0.16944053769111633f, 
		-0.004405484534800053f, 0.06542498618364334f, -0.14268335700035095f, -0.16572605073451996f, -0.06043300777673721f, 
		0.05702462047338486f, 0.032060179859399796f, -0.06291872262954712f, 0.20557959377765656f, 0.11781837791204453f, 
		-0.07013244181871414f, 0.12839926779270172f, -0.002745209727436304f, 0.023252693936228752f, -0.06841576099395752f, 
		0.005328415893018246f, -0.1458078920841217f, 0.05381983891129494f, -0.05508052930235863f, 0.0627482458949089f, 
		0.03786374628543854f, 0.07028713077306747f, 0.12103608250617981f, -0.03567654639482498f, 0.031336065381765366f, 
		0.11862080544233322f, 0.03869210183620453f, -0.10502166301012039f, 0.01355735957622528f, 0.07585558295249939f, 
		-0.21206924319267273f, -0.07458855211734772f, 0.0012212333967909217f, -0.021738450974225998f, -0.0221091415733099f, 
		-0.02341226302087307f, -0.08972212672233582f, -0.08291014283895493f, 0.026563147082924843f, 0.0043079969473183155f, 
		0.07679443806409836f, 0.0026203275192528963f, 0.022720137611031532f, 0.11459530889987946f, 0.14560078084468842f, 
		-0.031058086082339287f, -0.12098385393619537f, -0.13524968922138214f, -0.05151386931538582f, 0.01585487090051174f, 
		-0.08835023641586304f, 0.0075414348393678665f, 0.008317941799759865f, 0.08282240480184555f, 0.10456687957048416f, 
		0.033953707665205f, 0.006652355194091797f, -0.033168550580739975f, 0.03378888964653015f, -0.040178801864385605f, 
		0.05907371640205383f, 0.03929424285888672f, -0.13462214171886444f, -0.10738547146320343f, 0.05108825862407684f, 
		0.1242762878537178f, -0.00011066579463658854f, -0.0894555076956749f, -0.12616769969463348f, -0.06673931330442429f, 
		-0.029718052595853806f, -0.11405538767576218f, 0.1303766369819641f, 0.06365829706192017f, 0.025635669007897377f, 
		0.1732572466135025f, 0.0816081166267395f, -0.0222785621881485f, 0.02814154326915741f, -0.12488780915737152f, 
		0.03632282465696335f, 0.017837056890130043f, -0.107191301882267f, 0.025217710062861443f, 0.04821517691016197f, 
		0.02685411460697651f, -0.021654151380062103f, -0.007743900176137686f, -0.09512794762849808f, 0.05314324051141739f, 
		-0.025390181690454483f, 0.012348923832178116f, 0.08262498676776886f, 0.036264851689338684f, -0.12589558959007263f, 
		-0.09838798642158508f, 0.12144451588392258f, 0.04231434315443039f, -0.014697902835905552f, -0.11473008245229721f, 
		-0.027664363384246826f, -0.07877844572067261f, 0.01739102602005005f, -0.11788224428892136f, 0.11364145576953888f, 
		0.111125148832798f, -0.09953013062477112f, 0.055124834179878235f, -0.07994059473276138f, 0.08498845249414444f, 
		-0.05387815460562706f, -0.07155114412307739f, -0.006497211754322052f, -0.08364320546388626f, -0.017422035336494446f, 
		0.006795130670070648f, -0.0478031150996685f, -0.028826497495174408f, 0.055917732417583466f, 0.06709956377744675f, 
		0.0028664246201515198f, -0.010444097220897675f, 0.018966026604175568f, 0.003653384745121002f, 0.047731913626194f, 
		-0.06981994956731796f, 0.06718853861093521f, 0.021171219646930695f, -0.05508395656943321f, 0.019046775996685028f, 
		-0.015049934387207031f, -0.05347935110330582f, 0.04634406417608261f, -0.031231824308633804f, 0.024808943271636963f, 
		0.0811711773276329f, 0.05755343288183212f, 0.04205463081598282f, -0.017850853502750397f, -0.06995273381471634f, 
		-0.03714913874864578f, -0.04433826729655266f, 0.026895008981227875f, 0.0682789608836174f, -0.02941083535552025f, 
		-0.04253774508833885f, 0.05387819558382034f, -0.03212108463048935f, -0.04977712780237198f, -0.07884744554758072f, 
		-0.03508470207452774f, 0.03572212904691696f, 0.022995419800281525f, -0.08467134833335876f, 0.04688984900712967f, 
		-0.07944828271865845f, 0.01938539743423462f, -0.01313813030719757f, 0.08109395951032639f, -0.0700581818819046f, 
		-0.018986649811267853f, -0.03856804966926575f, 0.02699720859527588f, -0.05544784292578697f, 0.06873921304941177f, 
		0.04903208464384079f, -0.06090616434812546f, -0.0830661728978157f, 0.015260592103004456f, -0.021882884204387665f, 
		0.01601359248161316f, 0.06958479434251785f, -0.042605455964803696f, 0.04299335926771164f, -0.01217157393693924f, 
		-0.037645891308784485f, -0.048677943646907806f, 0.03990558534860611f, 0.016592510044574738f, -0.057438865303993225f, 
		-0.08301669359207153f, -0.03778368607163429f, 0.007577545940876007f, 0.004260554909706116f, -0.03778247907757759f, 
		0.03962109237909317f, -0.06345558166503906f, 0.05723384767770767f, 0.05951652675867081f, 0.0837274119257927f, 
		-0.0757429450750351f, -0.06147214025259018f, 0.03035356104373932f, 0.015704534947872162f, 0.08443928509950638f, 
		-0.07821187376976013f, 0.05302608758211136f, 0.04235563427209854f, 0.0025093480944633484f, 0.01784329116344452f, 
		0.04900892823934555f, -0.07480952143669128f, -0.06122276186943054f, -0.07412836700677872f, -0.04049820825457573f, 
		0.06778856366872787f, 0.04895225912332535f, 0.04411572962999344f, -0.07734546810388565f, 0.048159368336200714f, 
		-0.008381746709346771f, -0.02068401128053665f, 0.04629584401845932f, 0.05302736908197403f, -0.033323124051094055f, 
		-0.05138858035206795f, -0.031289905309677124f, 0.023964881896972656f, 0.03156759589910507f, 0.039411596953868866f, 
		0.08471622318029404f, -0.04276011511683464f, -0.06648148596286774f, 0.02360484004020691f, -0.06818406283855438f, 
		-0.050512444227933884f, -0.06546078622341156f, 0.042341239750385284f, -0.05060037598013878f, -0.06049793213605881f, 
		0.02337156981229782f, -0.047224011272192f, -0.014916554093360901f, -0.08302746713161469f, 0.030759520828723907f, 
		-0.021574296057224274f, -0.023255612701177597f, 0.06318583339452744f, -0.04070254787802696f, 0.06187751144170761f, 
		-0.009111829102039337f, 0.029767625033855438f, -0.07169511169195175f, -0.0022997483611106873f, -0.0842701718211174f, 
		0.027620799839496613f, -0.054387420415878296f, 0.034920983016490936f, -0.030846714973449707f, -0.027256730943918228f, 
		0.03740286827087402f, 0.07404682785272598f, -0.02897903323173523f, 0.08311185985803604f, 0.015465155243873596f, 
		-0.00809440016746521f, 0.023961223661899567f, -0.07902694493532181f, 0.014257557690143585f, -0.021978750824928284f, 
		0.07974756509065628f, -0.056949861347675323f, 0.0815904513001442f, -0.02355530485510826f, -0.006059139966964722f, 
		-0.030794993042945862f, 0.07048594206571579f, -0.0361955389380455f, 0.02994205802679062f, -0.009706936776638031f, 
		0.010015852749347687f, -0.05603424459695816f, 0.06986945122480392f, -0.025598376989364624f, -0.05333932861685753f, 
		-0.01559305191040039f, -0.03724902868270874f, 0.08046611398458481f, 0.055157773196697235f, -0.02691161260008812f, 
		0.025858283042907715f, 0.02692168951034546f, 0.06833528727293015f, -0.028654154390096664f, 0.03931909054517746f, 
		-0.05459928512573242f, 0.046437762677669525f, 0.06169664114713669f, 0.08015764504671097f, -0.06904059648513794f, 
		-0.06832602620124817f, 0.05849244445562363f, 0.007853120565414429f, 0.01722525805234909f, -0.039992623031139374f, 
		-0.065006785094738f, -0.047552548348903656f, 0.01078498363494873f, -0.01740005612373352f, -0.012342624366283417f, 
		-0.0018024810124188662f, 0.0005065402947366238f, -0.04229229316115379f, 0.00973397959023714f, 0.06820857524871826f, 
		-0.007037675939500332f, 0.07649321109056473f, 0.0237729549407959f, -0.04638655483722687f, 0.007913322187960148f, 
		-0.01864239200949669f, -0.0666179284453392f, 0.045419882982969284f, 0.07511993497610092f, -0.03435136377811432f, 
		-0.07852848619222641f, -0.030906205996870995f, -0.027936914935708046f, -0.007051937747746706f, 0.07196244597434998f, 
		-0.03177506849169731f, 0.02853131666779518f, 0.06798825412988663f, -0.08035236597061157f, 0.06526748090982437f, 
		0.04664694517850876f, 0.08306042104959488f, 0.045548178255558014f, -0.0048665208742022514f, -0.05874928459525108f, 
		-0.10095500946044922f, -0.053028784692287445f, -0.02758355811238289f, -0.03975612670183182f, -0.028859619051218033f, 
		0.0295505840331316f, -0.15416917204856873f, -0.1522601991891861f, 0.05536719411611557f, 0.016963839530944824f, 
		-0.079375721514225f, 0.1024455577135086f, 0.10770554840564728f, 0.09579067677259445f, -0.07858141511678696f, 
		-0.03208749741315842f, -0.05495996028184891f, -0.060610171407461166f, -0.05838878080248833f, -0.08569691330194473f, 
		0.1333681046962738f, -0.002980349585413933f, 0.04041694849729538f, -0.009145434014499187f, 0.09168390184640884f, 
		-0.0037738815881311893f, 0.03851548209786415f, -0.0009505152702331543f, -0.06332211196422577f, -0.12924601137638092f, 
		0.1572769731283188f, 0.0909135490655899f, 0.06078629940748215f, -0.03655426204204559f, 0.05131024867296219f, 
		-0.03535531833767891f, -0.025479665026068687f, -0.08800064027309418f, -0.04050300642848015f, -0.07945331186056137f, 
		-0.05081898346543312f, 0.08388612419366837f, -0.0010515302419662476f, 0.13408133387565613f, 0.18117569386959076f, 
		0.04671558737754822f, -0.08589117228984833f, 0.12559926509857178f, -0.1062525138258934f, -0.18368957936763763f, 
		0.0029036670457571745f, -0.08475815504789352f, -0.03166921064257622f, 0.04575818032026291f, 0.1327555775642395f, 
		-0.08569102734327316f, 0.02381434291601181f, -0.09522169083356857f, 0.09272300451993942f, 0.00917833298444748f, 
		-0.0810130164027214f, -0.15831011533737183f, 0.18542227149009705f, 0.06333272159099579f, 0.04962186515331268f, 
		-0.02315627597272396f, 0.08826189488172531f, 0.06750006228685379f, -0.05595328286290169f, 0.0014875598717480898f, 
		-0.04770878702402115f, 0.11577316373586655f, -0.0657816007733345f, 0.002575114369392395f, -0.020750099793076515f, 
		-0.026869267225265503f, 0.04590405896306038f, 0.02241913229227066f, -0.025550736114382744f, -0.0005056060617789626f, 
		-0.07220318168401718f, -0.0600522980093956f, 0.06141370162367821f, -0.010729076340794563f, -0.0046900431625545025f, 
		0.0010341258021071553f, 0.000334683689288795f, -0.06734540313482285f, -0.023130478337407112f, 0.024000300094485283f, 
		-0.03290824964642525f, 0.030306637287139893f, 0.08694835752248764f, -0.08320596814155579f, 0.12599393725395203f, 
		0.08277367055416107f, -0.011569757014513016f, 0.02699645794928074f, 0.11032584309577942f, -0.04825111851096153f, 
		-0.0878290981054306f, -0.024621281772851944f, -0.15349018573760986f, 0.12062016874551773f, -0.19817864894866943f, 
		0.0498277023434639f, 0.021329421550035477f, 0.01645462028682232f, 0.11707621812820435f, -0.04222287982702255f, 
		-0.0024897546973079443f, 0.0011433438630774617f, -0.07463058829307556f, -0.09058474004268646f, 0.05266407132148743f, 
		0.0906221941113472f, -0.021402359008789062f, -0.08985038846731186f, 0.03513563424348831f, 0.021076522767543793f, 
		0.11575623601675034f, -0.10150150209665298f, 0.03038870356976986f, 0.03456496447324753f, 0.05790756642818451f, 
		-0.05813847482204437f, 0.09609837085008621f, 0.058873508125543594f, -0.00023425598919857293f, 0.137040376663208f, 
		0.11780241876840591f, 0.004024296533316374f, -0.12876425683498383f, -0.10907494276762009f, -0.14699824154376984f, 
		0.08258482813835144f, -0.10079024732112885f, -0.031488336622714996f, -0.06668464094400406f, 0.10326000303030014f, 
		0.13461506366729736f, -0.004802982788532972f, 0.022054793313145638f, 0.039364490658044815f, -0.01684383489191532f, 
		-0.10589607805013657f, 0.07680252939462662f, 0.04963501915335655f, -0.10890514403581619f, -0.15892650187015533f, 
		0.059877991676330566f, 0.026020800694823265f, -0.05259747803211212f, -0.12550370395183563f, -0.016664741560816765f, 
		-0.023883700370788574f, 0.033083464950323105f, -0.07635124772787094f, 0.16546516120433807f, 0.021041326224803925f, 
		-0.08044799417257309f, 0.07397984713315964f, 0.17216165363788605f, -0.019732890650629997f, -0.013667076826095581f, 
		-0.15039384365081787f, -0.16427123546600342f, 0.012351574376225471f, -0.135860875248909f, 0.019613076001405716f, 
		-0.15408015251159668f, 0.1398545801639557f, 0.13565993309020996f, -0.03775632008910179f, 0.02610849216580391f, 
		-0.15085144340991974f, -0.04039524495601654f, -0.19488997757434845f, 0.12106085568666458f, 0.022616956382989883f, 
		-0.10183864086866379f, -0.14152932167053223f, 0.22585894167423248f, 0.05099305510520935f, 0.03843318298459053f, 
		-0.23983067274093628f, -0.06945985555648804f, 0.032023899257183075f, 0.0027488369960337877f, -0.10772065818309784f, 
		0.13666518032550812f, 0.10024887323379517f, -0.14599233865737915f, 0.22751539945602417f, 0.21661491692066193f, 
		0.04036996141076088f, -0.02135598659515381f, -0.10336916893720627f, -0.04949787259101868f, 0.11901852488517761f, 
		-0.17343094944953918f, -0.12048092484474182f, -0.05306790769100189f, 0.11103390157222748f, 0.06051258742809296f, 
		0.05769358202815056f, 0.08533454686403275f, -0.17285089194774628f, -0.05213429778814316f, -0.08015765249729156f, 
		0.07822152227163315f, 0.03595014661550522f, -0.09589403122663498f, -0.14629538357257843f, 0.09964079409837723f, 
		0.16943395137786865f, 0.019871022552251816f, -0.14270880818367004f, -0.1718757152557373f, -0.05594652146100998f, 
		0.07925408333539963f, -0.1431475430727005f, 0.07910756766796112f, 0.10518302768468857f, -0.07432548701763153f, 
		0.059004660695791245f, 0.22732844948768616f, 0.04208482429385185f, 0.00016608074656687677f, -0.19430549442768097f, 
		-0.09176728129386902f, 0.0049182646907866f, -0.2206343114376068f, -0.10419715940952301f, 0.018318507820367813f, 
		0.11514529585838318f, 0.0743681862950325f, 0.19024349749088287f, -0.11479711532592773f, -0.23527759313583374f, 
		-0.02602938748896122f, -0.11094240844249725f, 0.22292615473270416f, 0.06347446888685226f, -0.047746166586875916f, 
		-0.20232483744621277f, 0.25421202182769775f, 0.055743083357810974f, 0.05648760870099068f, -0.11201457679271698f, 
		-0.14764459431171417f, 0.04420579969882965f, 0.049278371036052704f, -0.2434956282377243f, 0.20082545280456543f, 
		-0.003629466984421015f, -0.06052825599908829f, 0.04512501135468483f, 0.28874698281288147f, -0.04547186568379402f, 
		-0.08139049261808395f, -0.1799432784318924f, 0.07747578620910645f, 0.16646966338157654f, -0.19910866022109985f, 
		-0.06339011341333389f, 0.012281142175197601f, 0.11526761949062347f, 0.10190139710903168f, 0.25616246461868286f, 
		-0.08227495104074478f, -0.08400843292474747f, -0.08894338458776474f, -0.23284819722175598f, 0.07589177787303925f, 
		0.1496088057756424f, 0.03744759038090706f, -0.09630671888589859f, 0.20272749662399292f, 0.012211168184876442f, 
		0.1193816289305687f, -0.0759192556142807f, -0.2823079228401184f, -0.0796884074807167f, -0.01509443111717701f, 
		-0.1699346899986267f, 0.21893645823001862f, -0.029519494622945786f, -0.12820878624916077f, 0.13206776976585388f, 
		0.1500772386789322f, 0.040142204612493515f, 0.03086254931986332f, -0.06537407636642456f, -0.06174756959080696f, 
		0.13111425936222076f, -0.3115544319152832f, -0.11027522385120392f, 0.0473053939640522f, -0.01159586850553751f, 
		0.1919201910495758f, 0.1547519564628601f, -0.09875093400478363f, -0.013617124408483505f, -0.01462960708886385f, 
		-0.17600412666797638f, 0.07002978026866913f, 0.20219825208187103f, -0.013138985261321068f, -0.10992688685655594f, 
		0.24276581406593323f, 0.12251072376966476f, 0.059096794575452805f, -0.1918533593416214f, -0.18307863175868988f, 
		0.06593058258295059f, -0.032295580953359604f, -0.1711004227399826f, 0.0702151358127594f, 0.10000837594270706f, 
		-0.03958870470523834f, 0.016967814415693283f, 0.16973857581615448f, -0.020815320312976837f, 0.08885519206523895f, 
		-0.030847683548927307f, -0.15506941080093384f, -0.05190729722380638f, -0.28541800379753113f, -0.1852235496044159f, 
		0.16317495703697205f, 0.010262351483106613f, 0.04866550490260124f, 0.0797446146607399f, -0.04129703715443611f, 
		-0.04379209503531456f, -0.07917769998311996f, -0.1232328936457634f, 0.03113188035786152f, 0.0598888099193573f, 
		-0.028287649154663086f, -0.14966034889221191f, 0.14670082926750183f, -0.007493444252759218f, -0.0534326434135437f, 
		-0.08829865604639053f, -0.10782218724489212f, 0.03488311544060707f, 0.04523738473653793f, -0.1892738789319992f, 
		0.15310756862163544f, 0.006447870749980211f, 0.010663042776286602f, 0.08017551153898239f, 0.22958065569400787f, 
		-0.10125147551298141f, 0.003255060175433755f, -0.06528571993112564f, -0.028232617303729057f, 0.0761210173368454f, 
		-0.2558787763118744f, -0.00032629247289150953f, 0.1260475069284439f, -0.08017951995134354f, 0.0671389028429985f, 
		-0.04375633969902992f, -0.09389501065015793f, -0.008451382629573345f, -0.07171458750963211f, -0.12741467356681824f, 
		0.05906184762716293f, 0.07766430079936981f, -0.08440034091472626f, -0.08977706730365753f, 0.17549949884414673f, 
		0.022589869797229767f, -0.07242889702320099f, -0.06346950680017471f, -0.08707062155008316f, 0.0075537776574492455f, 
		0.05511905997991562f, -0.1599465161561966f, 0.08377043157815933f, 0.1238914281129837f, 0.033638693392276764f, 
		-0.0464557521045208f, 0.1835680603981018f, -0.12412876635789871f, 0.04537365958094597f, 0.01371588185429573f, 
		-0.12867793440818787f, 0.037801340222358704f, -0.1311691850423813f, 0.00918307900428772f, 0.19872388243675232f, 
		-0.0965709239244461f, 0.07681795209646225f, -0.16350404918193817f, -0.21331854164600372f, -0.007304731756448746f, 
		-0.06086421012878418f, -0.08797825127840042f, 0.06280889362096786f, 0.09664938598871231f, -0.06420143693685532f, 
		0.07603788375854492f, 0.0659116879105568f, 0.05160826817154884f, -0.15139049291610718f, -0.0389539860188961f, 
		-0.05830926448106766f, -0.015341563150286674f, 0.006633085664361715f, -0.21590863168239594f, 0.09617484360933304f, 
		0.11070787906646729f, 0.039609551429748535f, -0.1160702183842659f, 0.05575282499194145f, -0.1133008673787117f, 
		0.0705682709813118f, -0.08832961320877075f, -0.156642347574234f, 0.011531316675245762f, -0.10569141060113907f, 
		0.08325109630823135f, -0.0040827300399541855f, 0.05177730694413185f, 0.0401383675634861f, -0.0725981816649437f, 
		-0.03860364109277725f, 0.03311312943696976f, 0.09887406975030899f, -0.13648563623428345f, 0.011566964909434319f, 
		0.13106432557106018f, -0.058927543461322784f, 0.07886737585067749f, -0.049248114228248596f, 0.12060527503490448f, 
		-0.08775201439857483f, -0.053934551775455475f, -0.029501670971512794f, -0.0009259665384888649f, 0.09107381850481033f, 
		-0.11895781010389328f, 0.11875276267528534f, 0.112641341984272f, 0.0552535355091095f, 0.09046861529350281f, 
		0.10447458177804947f, -0.02605372481048107f, 0.0494411326944828f, -0.013783369213342667f, -0.033887602388858795f, 
		0.06037045642733574f, -0.10311964154243469f, 0.06680600345134735f, -0.08323050290346146f, 0.023290345445275307f, 
		0.13013792037963867f, 0.0026937895454466343f, 0.020241808146238327f, -0.06425968557596207f, -0.0513196662068367f, 
		-0.13257557153701782f, 0.05452517792582512f, 0.1334429383277893f, 0.027803100645542145f, 0.03812510147690773f, 
		-0.03621051460504532f, 0.15240126848220825f, -0.09956660121679306f, -0.065513975918293f, -0.04579031094908714f, 
		0.00600414676591754f, -0.04013293609023094f, 0.0069122822023928165f, 0.10658260434865952f, 0.19781284034252167f, 
		-0.03931613266468048f, 0.25411713123321533f, -0.0012745519634336233f, -0.07728979736566544f, -0.035181187093257904f, 
		-0.06630176305770874f, -0.11984360963106155f, 0.08953667432069778f, 0.03999176248908043f, 0.055886462330818176f, 
		-0.1319528967142105f, 0.0019449124811217189f, 0.03390325978398323f, -0.05859152600169182f, 0.00034549119300208986f, 
		0.0812559649348259f, 0.03726331517100334f, -0.15726922452449799f, -0.10263829678297043f, -0.03633194416761398f, 
		-0.040230050683021545f, 0.009425141848623753f, 0.013649946078658104f, 0.12803712487220764f, -0.10743805766105652f, 
		-0.11064430326223373f, -0.21516935527324677f, 0.009863989427685738f, -0.025016238912940025f, -0.10235416889190674f, 
		0.14314889907836914f, 0.0919022411108017f, 0.053068723529577255f, 0.2351534068584442f, 0.02804161235690117f, 
		-0.061906374990940094f, -0.16174408793449402f, -0.11420278996229172f, -0.14680342376232147f, -0.04663766920566559f, 
		0.07345398515462875f, 0.11611754447221756f, 0.012584924697875977f, 0.07949189096689224f, 0.2027135193347931f, 
		-0.02281082607805729f, 0.07334409654140472f, 0.1665555238723755f, -0.04639703035354614f, -0.10520155727863312f, 
		0.015981880947947502f, -0.0917394682765007f, -0.18864551186561584f, -0.12896502017974854f, -0.07622966915369034f, 
		-0.00036156532587483525f, -0.11351628601551056f, -0.07838287204504013f, -0.16714449226856232f, 0.07637941092252731f, 
		-0.09551206976175308f, -0.050934143364429474f, 0.11388976871967316f, 0.02250032126903534f, 0.03779730573296547f, 
		0.32915645837783813f, 0.13631828129291534f, 0.03586389869451523f, -0.09647945314645767f, -0.025440122932195663f, 
		-0.08428593724966049f, -0.013335777446627617f, 0.005197891499847174f, 0.17854689061641693f, -0.11003562808036804f, 
		0.039136093109846115f, 0.17438508570194244f, -0.02057776227593422f, -0.017899498343467712f, 0.12135379016399384f, 
		-0.010415292344987392f, -0.17265768349170685f, 0.15552440285682678f, 0.025399785488843918f, -0.1374187171459198f, 
		-0.06189125403761864f, -0.0786062702536583f, -0.039929311722517014f, -0.16404779255390167f, -0.1350654512643814f, 
		-0.07079910486936569f, -0.015111610293388367f, -0.0916072204709053f, -0.037625834345817566f, 0.038886457681655884f, 
		0.044697076082229614f, -0.012809280306100845f, 0.13129770755767822f, 0.14478233456611633f, 0.005336110945791006f, 
		-0.08345334976911545f, -0.15628762543201447f, -0.01619703322649002f, 0.06866252422332764f, -0.1374225616455078f, 
		0.21439649164676666f, -0.04431949555873871f, 0.09622388333082199f, 0.161934956908226f, 0.16442540287971497f, 
		0.006628378760069609f, 0.028324516490101814f, -0.026247136294841766f, -0.0654292106628418f, 0.07121940702199936f, 
		0.005566289182752371f, -0.19761797785758972f, -0.14945827424526215f, 0.011528349481523037f, -0.07356575131416321f, 
		-0.13759705424308777f, 0.026029342785477638f, -0.14069810509681702f, 0.04032308608293533f, 0.05136869102716446f, 
		-0.15785667300224304f, 0.07493972778320312f, -0.02647974342107773f, 0.012093434110283852f, 0.12796549499034882f, 
		0.15916432440280914f, 0.008007428608834743f, -0.1430761069059372f, -0.013872930780053139f, -0.045255936682224274f, 
		0.15666158497333527f, -0.0925220400094986f, 0.23979559540748596f, -0.07351265102624893f, 0.051782961934804916f, 
		0.1931498646736145f, 0.17620736360549927f, -0.13572539389133453f, 0.01452447660267353f, -0.10054092854261398f, 
		-0.2085733413696289f, 0.07328563928604126f, 0.02732568234205246f, -0.19600503146648407f, -0.17427267134189606f, 
		0.04817898944020271f, 0.04861418157815933f, -0.27808642387390137f, -0.08123418688774109f, -0.09973672032356262f, 
		-0.029157407581806183f, -0.08566004782915115f, -0.06942611932754517f, 0.12571163475513458f, 0.012320803478360176f, 
		-0.002900909399613738f, 0.17803797125816345f, 0.01675301231443882f, 0.005170886404812336f, -0.00516160624101758f, 
		-0.0850500538945198f, -0.11696687340736389f, -0.09373379498720169f, -0.1807413548231125f, 0.018892236053943634f, 
		-0.1300520896911621f, 0.07356241345405579f, 0.08498367667198181f, 0.02973337285220623f, -0.0026086580473929644f, 
		0.029347900301218033f, -0.07311524450778961f, -0.12677901983261108f, 0.020769504830241203f, 0.0827106386423111f, 
		-0.23268790543079376f, -0.13135264813899994f, -0.06870099902153015f, -0.04689713940024376f, -0.08184252679347992f, 
		-0.15740108489990234f, -0.03914923965930939f, 0.06243178993463516f, 0.03764914721250534f, -0.15922187268733978f, 
		0.06304904073476791f, 0.09488508105278015f, -0.04021425545215607f, 0.09106562286615372f, 0.04424559324979782f, 
		0.007192885968834162f, 0.01444826740771532f, 0.0354498028755188f, 0.021559178829193115f, -0.06401396542787552f, 
		0.016615241765975952f, 0.055662378668785095f, -0.0670277550816536f, -0.036390434950590134f, 0.018216334283351898f, 
		-0.016854966059327126f, 0.01396105531603098f, -0.11844921857118607f, 0.05726851522922516f, -0.06092296540737152f, 
		0.09317395091056824f, 0.026674099266529083f, -0.04915010184049606f, -0.038687147200107574f, 0.0710434541106224f, 
		0.09470716863870621f, -0.03182772174477577f, -0.05240388587117195f, -0.10280673950910568f, -0.08042150735855103f, 
		-0.059688787907361984f, -0.11898225545883179f, 0.08373789489269257f, -0.004332046490162611f, 0.03559587523341179f, 
		-0.04958482086658478f, 0.0033979325089603662f, -0.0631370022892952f, 0.01474851556122303f, 0.03466649726033211f, 
		-0.03382282331585884f, -0.09550725668668747f, 0.03988952189683914f, 0.0024581460747867823f, 0.038991786539554596f, 
		-0.024789059534668922f, 0.010530130006372929f, -0.11720845103263855f, -0.03096473589539528f, -0.1508946567773819f, 
		0.095881387591362f, -0.009023908525705338f, -0.051416248083114624f, 0.12513089179992676f, -0.04905836656689644f, 
		-0.10808268934488297f, 0.10065300762653351f, -0.02592976577579975f, 0.006159045267850161f, -0.12896426022052765f, 
		0.04397321492433548f, 0.051177941262722015f, 0.02055635303258896f, 0.0545886792242527f, 0.040646329522132874f, 
		0.0022957862820476294f, -0.07326257973909378f, -0.06323077529668808f, -0.054811742156744f, -0.030693937093019485f, 
		0.038756340742111206f, -0.07676567137241364f, -0.012350007891654968f, 0.04334338754415512f, -0.0256396122276783f, 
		0.036477766931056976f, 0.00399518758058548f, 0.08045776933431625f, 0.037536002695560455f, 0.04551570862531662f, 
		-0.017143160104751587f, -0.08412551134824753f, -0.0004310682415962219f, 0.013332433998584747f, -0.05809209868311882f, 
		0.004378601908683777f, 0.0017001405358314514f, -0.003548748791217804f, -0.07813236862421036f, -0.06457997113466263f, 
		-0.02733779326081276f, -0.008145466446876526f, -0.03754471242427826f, -0.07444854080677032f, -0.022483639419078827f, 
		0.0340302512049675f, -0.017563387751579285f, 0.007505565881729126f, 0.055998243391513824f, -0.07484979927539825f, 
		0.0784393772482872f, 0.07479014247655869f, -0.012135304510593414f, -0.055011503398418427f, -0.026062458753585815f, 
		0.06850922852754593f, -0.06683674454689026f, -0.042211517691612244f, -0.032840292900800705f, 0.05886568874120712f, 
		-0.03490368649363518f, 0.009609624743461609f, 0.006593465805053711f, -0.047026172280311584f, 0.049164555966854095f, 
		-0.049827829003334045f, -0.0441984087228775f, 0.06828338652849197f, -0.0036814510822296143f, 0.08039074391126633f, 
		-0.015272855758666992f, -0.0339178666472435f, -0.020053066313266754f, -0.06849513947963715f, 0.04809511452913284f, 
		-0.07623465359210968f, 0.05678112059831619f, 0.03917350620031357f, 0.04466562718153f, -0.0557025782763958f, 
		0.04419315606355667f, -0.06450343132019043f, 0.030376948416233063f, 0.06662186235189438f, -0.02402092143893242f, 
		-0.005587756633758545f, 0.028989851474761963f, -0.048275724053382874f, 0.011535145342350006f, -0.029208313673734665f, 
		-0.04691491648554802f, 0.010050013661384583f, 0.03695289045572281f, 0.010858789086341858f, -0.07508543878793716f, 
		-0.023228317499160767f, 0.05467594414949417f, 0.012720927596092224f, -0.024562958627939224f, 0.010038092732429504f, 
		-0.04485099017620087f, 0.07351694256067276f, -0.002395428717136383f, 0.018105387687683105f, 0.05556564778089523f, 
		-0.043410468846559525f, -0.07759619504213333f, -0.08403035998344421f, -0.011402681469917297f, 0.06035438925027847f, 
		0.008055903017520905f, -0.07698548585176468f, -0.07236218452453613f, -0.04589942842721939f, 0.026713140308856964f, 
		-0.08050142228603363f, -0.0831209197640419f, 0.05675751715898514f, 0.027413763105869293f, 0.02617451548576355f, 
		-0.0686740130186081f, -0.02377612143754959f, 0.07339730113744736f, -0.07827052474021912f, 0.015625275671482086f, 
		0.057467736303806305f, -0.05575113371014595f, 0.017290011048316956f, 0.06079084426164627f, -0.029080703854560852f, 
		-0.010552473366260529f, 0.07790590077638626f, -0.05550197884440422f, 0.06541194766759872f, 0.031089186668395996f, 
		-0.021080881357192993f, -0.03476155921816826f, -0.03032759577035904f, 0.07501738518476486f, -0.06899745762348175f, 
		-0.04473476484417915f, 0.0449313148856163f, 0.03512587398290634f, 0.02171245962381363f, 0.004514455795288086f, 
		-0.006347522139549255f, -0.033140573650598526f, 0.06516668945550919f, -0.057679496705532074f, -0.08029641956090927f, 
		-0.02408347837626934f, 0.020149243995547295f, -0.06974891573190689f, 0.027064494788646698f, 0.07625420391559601f, 
		-0.06318836659193039f, 0.03864607587456703f, -0.026698701083660126f, 0.008438043296337128f, -0.07526524364948273f, 
		-0.061852794140577316f, -0.08376096934080124f, -0.010795630514621735f, 0.09539894014596939f, 0.0634438544511795f, 
		0.0032438922207802534f, 0.05906324088573456f, -0.05679291859269142f, -0.04928949102759361f, -0.03254964202642441f, 
		0.042024821043014526f, 0.07803455740213394f, 0.060893066227436066f, 0.013870730996131897f, 0.0795256718993187f, 
		0.06040579080581665f, 0.053130023181438446f, 0.003918272443115711f, -0.0396343432366848f, 0.013207650743424892f, 
		-0.132865771651268f, -0.10015334188938141f, -0.04929180443286896f, -0.06220971792936325f, 0.03338072448968887f, 
		-0.042288146913051605f, -0.05987800657749176f, 0.11712827533483505f, 0.02056378871202469f, 0.1762264370918274f, 
		-0.03392576426267624f, -0.04792977496981621f, 0.08423466235399246f, -0.09667499363422394f, -0.13443037867546082f, 
		-0.006885661743581295f, 0.014826945960521698f, 0.018609346821904182f, 0.10878831893205643f, -0.0352044515311718f, 
		-0.038889843970537186f, -0.11256375163793564f, 0.11093873530626297f, 0.049431584775447845f, 0.08979326486587524f, 
		-0.05162803456187248f, 0.10493836551904678f, -0.06024092435836792f, -0.09446289390325546f, -0.09892759472131729f, 
		0.10728377103805542f, -0.03904486820101738f, -0.12947455048561096f, -0.08906153589487076f, -0.187703937292099f, 
		-0.0003332278865855187f, 0.07913878560066223f, -0.039768289774656296f, 0.03331775218248367f, 0.13966476917266846f, 
		0.19854022562503815f, -0.09115927666425705f, -0.08159793168306351f, 0.09367378056049347f, -0.08986063301563263f, 
		-0.11215464025735855f, 0.15126852691173553f, 0.10795879364013672f, -0.030229927971959114f, -0.052612483501434326f, 
		0.0395146869122982f, 0.07963535934686661f, -0.03433756157755852f, -0.2055879533290863f, 0.06768204271793365f, 
		-0.08179137110710144f, 0.0037864483892917633f, -0.18487045168876648f, 0.06262856721878052f, 0.01970219425857067f, 
		-0.04787963628768921f, -0.07879112660884857f, -0.04148013889789581f, -0.03748054802417755f, 0.06382288783788681f, 
		-0.07134494185447693f, 0.10633454471826553f, -0.017108142375946045f, -0.0765790268778801f, -0.0005432814359664917f, 
		0.11419879645109177f, -0.001189711387269199f, 0.05819828063249588f, 0.06248641386628151f, -0.06181864067912102f, 
		0.009326895698904991f, -0.08338222652673721f, -0.07607144862413406f, 0.011834007687866688f, 0.08345969021320343f, 
		-0.04866524040699005f, 0.0036806678399443626f, 0.09325064718723297f, -0.10658100247383118f, 0.05036118999123573f, 
		-0.10205689817667007f, -0.182344451546669f, -0.028957750648260117f, -0.06529824435710907f, -0.103666752576828f, 
		-0.07999251037836075f, 0.051855236291885376f, 0.05764877796173096f, 0.08445677161216736f, 0.08519867807626724f, 
		-0.07832827419042587f, 0.02379048988223076f, -0.10210399329662323f, 0.09044622629880905f, 0.05894456431269646f, 
		-0.11837589740753174f, 0.025578495115041733f, 0.061901774257421494f, 0.015481533482670784f, -0.003144912188872695f, 
		-0.026969632133841515f, 0.09061350673437119f, 0.11167100816965103f, -0.07981493324041367f, -0.2016211897134781f, 
		0.015304415486752987f, 0.13165271282196045f, -0.1655128300189972f, -0.1150435209274292f, 0.1058235839009285f, 
		0.0828336849808693f, 0.11722077429294586f, 0.007905119098722935f, -0.22325043380260468f, 0.023013003170490265f, 
		-0.01491241343319416f, -0.15115141868591309f, -0.025906171649694443f, -0.014236684888601303f, -0.10861770063638687f, 
		0.14658617973327637f, 0.004968840163201094f, -0.07595672458410263f, -0.007109208032488823f, -0.292386531829834f, 
		0.13220316171646118f, -0.13461069762706757f, -0.05001118779182434f, -0.07649645954370499f, 0.016962235793471336f, 
		-0.07930035144090652f, 0.019248226657509804f, 0.08262016624212265f, -0.04254396632313728f, 0.004597890190780163f, 
		-0.06474307179450989f, -0.11560449004173279f, 0.047473642975091934f, 0.05310618877410889f, -0.09219235181808472f, 
		-0.13702227175235748f, 0.06975775957107544f, 0.047744546085596085f, -0.03551119938492775f, -0.0845070481300354f, 
		-0.20806732773780823f, 0.07617679983377457f, -0.09921657294034958f, -0.2540557384490967f, 0.014222119934856892f, 
		-0.029171112924814224f, -0.06881161779165268f, 0.17334392666816711f, 0.05317781865596771f, -0.02758558839559555f, 
		0.07950937002897263f, -0.15495885908603668f, 0.03394152224063873f, -0.0720023363828659f, -0.15058670938014984f, 
		-0.07465671747922897f, 0.19686521589756012f, 0.020118091255426407f, 0.11768633872270584f, 0.1542968899011612f, 
		0.08976204693317413f, -0.09249227494001389f, -0.03271932154893875f, -0.20979073643684387f, -0.09312944859266281f, 
		0.15573947131633759f, -0.029145605862140656f, -0.15474273264408112f, 0.15263935923576355f, -0.026035994291305542f, 
		0.03522072359919548f, -0.016003413125872612f, -0.16510933637619019f, -0.007885649800300598f, -0.12074710428714752f, 
		-0.19408316910266876f, -0.03370743244886398f, 0.0561455674469471f, 0.05789169296622276f, 0.24462875723838806f, 
		0.12657123804092407f, -9.202757792081684e-05f, -0.06989667564630508f, -0.19936668872833252f, 0.07122795283794403f, 
		-0.07729394733905792f, -0.23846888542175293f, -0.15646658837795258f, 0.17452993988990784f, 0.005589262116700411f, 
		-0.021228844299912453f, 0.07425972819328308f, 0.011107073165476322f, -0.12273917347192764f, -0.01009151991456747f, 
		-0.18339486420154572f, 0.026967842131853104f, 0.22873972356319427f, -0.12135724723339081f, -0.24336980283260345f, 
		0.1461278200149536f, 0.16336828470230103f, 0.2205774486064911f, -0.1316426694393158f, -0.20489662885665894f, 
		-0.07929816842079163f, -0.15877526998519897f, -0.20983798801898956f, 0.07026459276676178f, 0.0485057607293129f, 
		-0.0789451077580452f, 0.08151235431432724f, 0.2012806385755539f, 0.03455337509512901f, -0.061579976230859756f, 
		-0.13123714923858643f, 0.022452685981988907f, -0.10217734426259995f, -0.30490240454673767f, -0.050778619945049286f, 
		0.11417374014854431f, 0.004428391810506582f, 0.0896308496594429f, 0.04178846627473831f, -0.009507481940090656f, 
		-0.10564817488193512f, 0.0030986128840595484f, -0.1434522569179535f, 0.062023963779211044f, 0.05223436281085014f, 
		-0.06690854579210281f, -0.16183634102344513f, -0.026589617133140564f, 0.06100834161043167f, 0.05605432763695717f, 
		-0.1878424435853958f, -0.1271335631608963f, -0.03885902091860771f, -0.15330034494400024f, -0.30291908979415894f, 
		0.09736301749944687f, 0.1261390745639801f, -0.03232288360595703f, 0.09457988291978836f, 0.039536457508802414f, 
		0.14380842447280884f, 0.07495170086622238f, -0.2147601842880249f, 0.09040306508541107f, -0.05692041665315628f, 
		-0.2470051646232605f, -0.13353851437568665f, 0.10374676436185837f, 0.11676909029483795f, 0.08271363377571106f, 
		0.08850312978029251f, -0.06962016969919205f, -0.10167650878429413f, -0.09199559688568115f, -0.20327016711235046f, 
		0.05656696856021881f, 0.17464673519134521f, 0.0857856273651123f, -0.1714494377374649f, 0.14291584491729736f, 
		0.1241430714726448f, 0.053265299648046494f, -0.07190379500389099f, -0.2027701586484909f, -0.05500810220837593f, 
		-0.10440254211425781f, -0.24797049164772034f, 0.04634183272719383f, -0.0026974494103342295f, 0.013964122161269188f, 
		0.23006193339824677f, 0.09014122933149338f, 0.12364327162504196f, 0.14032027125358582f, -0.17891719937324524f, 
		-0.008092014119029045f, -0.24729309976100922f, -0.3069767653942108f, -0.235560804605484f, 0.2839501202106476f, 
		-0.06689205020666122f, 0.12323050200939178f, 0.06829693168401718f, -0.0070387874729931355f, -0.006066325586289167f, 
		0.030901212245225906f, -0.08295764774084091f, -0.018700622022151947f, 0.14266453683376312f, 0.0338163748383522f, 
		-0.0776946097612381f, 0.20463474094867706f, 0.02280188538134098f, 0.11715676635503769f, -0.1064947322010994f, 
		-0.08230726420879364f, 0.0708937868475914f, -0.14167311787605286f, -0.29681849479675293f, 0.07777435332536697f, 
		0.08150384575128555f, 0.0818166583776474f, 0.19493110477924347f, 0.03412967175245285f, 0.12402047216892242f, 
		0.0513857863843441f, -0.17575764656066895f, 0.025308264419436455f, -0.15239836275577545f, -0.30958518385887146f, 
		-0.1861836016178131f, 0.11287930607795715f, -0.0075820437632501125f, 0.03420582041144371f, 0.0015096706338226795f, 
		-0.05032151937484741f, -0.08172636479139328f, -0.05886580049991608f, -0.21783347427845f, 0.03990544006228447f, 
		0.2300969809293747f, 0.002589596202597022f, -0.06822775304317474f, 0.1311299055814743f, 0.15347784757614136f, 
		0.09460818022489548f, -0.2574026584625244f, 0.030016101896762848f, 0.024720225483179092f, -0.0334395132958889f, 
		-0.3703027665615082f, 0.20687243342399597f, 0.14567871391773224f, -0.014705388806760311f, 0.23522020876407623f, 
		0.06045405566692352f, 0.028965283185243607f, 0.013916787691414356f, -0.20392048358917236f, 0.013709004037082195f, 
		-0.07858581095933914f, -0.17582249641418457f, -0.17245100438594818f, 0.1285945177078247f, -0.009313544258475304f, 
		0.13003414869308472f, 0.078664630651474f, -0.03786904364824295f, -0.10237380862236023f, -0.1237652376294136f, 
		-0.20938336849212646f, -0.04644889384508133f, 0.02062533050775528f, 0.04293600097298622f, -0.11829441040754318f, 
		0.021549634635448456f, 0.07372938096523285f, 0.13453033566474915f, -0.11157102882862091f, -0.12147236615419388f, 
		0.03602108359336853f, 0.0726328194141388f, -0.32423779368400574f, 0.10750242322683334f, 0.1942426711320877f, 
		-0.12320549786090851f, 0.1440480351448059f, 0.009113905020058155f, 0.12450675666332245f, 0.016273144632577896f, 
		-0.16012397408485413f, -0.03427524119615555f, -0.2131720632314682f, -0.11719796806573868f, -0.13863253593444824f, 
		-0.01850876212120056f, 0.1041494831442833f, 0.12255936115980148f, 0.028859581798315048f, -0.009173747152090073f, 
		-0.015789367258548737f, -0.11968802660703659f, -0.08925628662109375f, -0.11207018792629242f, 0.08696898072957993f, 
		-0.08782392740249634f, 0.009124738164246082f, 0.006885235663503408f, 0.06629686802625656f, 0.053570378571748734f, 
		-0.12029599398374557f, -0.04341813176870346f, 0.07409961521625519f, 0.009074188768863678f, -0.27498358488082886f, 
		0.10351140797138214f, 0.11078700423240662f, 0.031386442482471466f, 0.2207859605550766f, 0.06908049434423447f, 
		0.1008950024843216f, 0.13182327151298523f, -0.12819252908229828f, 0.018770910799503326f, -0.16178575158119202f, 
		0.007906223647296429f, -0.06924580037593842f, 0.08548419177532196f, 0.048410963267087936f, 0.11823707818984985f, 
		-0.09889976680278778f, -0.15875066816806793f, -0.12843313813209534f, -0.11214248090982437f, -0.170144185423851f, 
		0.02584915980696678f, -0.004612260032445192f, -0.0888701006770134f, 0.08894115686416626f, -0.0010722378501668572f, 
		0.038265410810709f, 0.1462572067975998f, -0.0392574816942215f, -0.0869637280702591f, -0.0883435383439064f, 
		0.041736211627721786f, -0.15779635310173035f, 0.016764961183071136f, 0.02368713915348053f, -0.02568756230175495f, 
		0.276408314704895f, -0.010747299529612064f, 0.059620775282382965f, -0.03367232158780098f, 0.023550305515527725f, 
		0.045310620218515396f, -0.013881870545446873f, 0.00261752400547266f, 0.11829247325658798f, -0.0037007106002420187f, 
		0.09701985120773315f, 0.09983567893505096f, 0.09644253551959991f, -0.031276971101760864f, 0.04819611459970474f, 
		-0.08776654303073883f, -0.07261060178279877f, 0.01790894940495491f, 0.09262669086456299f, -0.003737333230674267f, 
		0.029098747298121452f, -0.04237605258822441f, -0.05041529983282089f, 0.024352645501494408f, -0.15930286049842834f, 
		-0.16260702908039093f, -0.08088157325983047f, -0.07448267936706543f, -0.12858925759792328f, 0.07191719114780426f, 
		0.0567479208111763f, -0.03567612171173096f, 0.1664215475320816f, 0.16002139449119568f, 0.06720054894685745f, 
		-0.0442776158452034f, 0.015849491581320763f, 0.029255634173750877f, 0.08967030793428421f, -0.09521070867776871f, 
		0.1008988618850708f, -0.11069808900356293f, -0.007452420424669981f, 0.17133381962776184f, 0.05675576627254486f, 
		-0.0783989429473877f, -0.017729036509990692f, -0.08876367658376694f, -0.10243796557188034f, -0.08298895508050919f, 
		0.007171588949859142f, -0.058921970427036285f, 0.009392526000738144f, 0.04322962462902069f, 0.04525032266974449f, 
		-0.07803284376859665f, -0.031053220853209496f, -0.23527023196220398f, 0.02235693670809269f, -0.047054097056388855f, 
		-0.07553915679454803f, 0.030035236850380898f, 0.1604675054550171f, 0.08339152485132217f, 0.35352668166160583f, 
		0.0484425351023674f, 0.06177127733826637f, -0.04347771406173706f, -0.10800821334123611f, -0.050703879445791245f, 
		0.1000388041138649f, -0.03986113891005516f, 0.05007461830973625f, -0.17576976120471954f, 0.02230246551334858f, 
		0.16763392090797424f, -0.013064349070191383f, -0.06180445849895477f, 0.02160968817770481f, -0.12949267029762268f, 
		-0.22134490311145782f, -0.10334467142820358f, 0.05095072463154793f, -0.14556236565113068f, -0.11526944488286972f, 
		-0.07270953804254532f, 0.0939466804265976f, -0.024727338925004005f, 0.0074876900762319565f, -0.1328997164964676f, 
		0.04863071069121361f, -0.08920498937368393f, -0.0003068452642764896f, 0.05697738751769066f, 0.11279748380184174f, 
		-0.07465986907482147f, 0.23329974710941315f, -0.003902666037902236f, -0.02362086996436119f, 0.056314509361982346f, 
		-0.1435486227273941f, 0.030678151175379753f, -0.009529303759336472f, -0.008240076713263988f, 0.09445896744728088f, 
		-0.1395207643508911f, -0.11743126064538956f, 0.16447289288043976f, 0.052494559437036514f, 0.07217149436473846f, 
		0.13048239052295685f, -0.17293059825897217f, -0.14840488135814667f, -0.09433680772781372f, -0.08934687077999115f, 
		-0.11155346781015396f, -0.12200181931257248f, -0.07819158583879471f, -0.023137744516134262f, -0.08683717995882034f, 
		0.0841219574213028f, -0.08023563027381897f, -0.04673011973500252f, -0.06234436109662056f, 0.0961054190993309f, 
		-0.07344861328601837f, 0.11874500662088394f, 0.06538315862417221f, 0.3536708950996399f, 0.07287190854549408f, 
		0.00538681261241436f, -0.15333400666713715f, -0.06545571237802505f, 0.09099221974611282f, 0.15681470930576324f, 
		-0.05551646277308464f, -0.029062338173389435f, -0.1584799587726593f, -0.036139823496341705f, 0.0690997987985611f, 
		0.046667441725730896f, -0.022022731602191925f, 0.073415108025074f, -0.033243924379348755f, -0.14758259057998657f, 
		-0.04701385647058487f, -0.2064894437789917f, -0.04571019485592842f, -0.20925204455852509f, -0.1285073608160019f, 
		0.05319654569029808f, -0.01174581702798605f, 0.1528179794549942f, -0.02670358493924141f, -0.039749521762132645f, 
		-0.1647518426179886f, -0.01866636611521244f, 0.057266104966402054f, -0.0058502438478171825f, -0.03287039324641228f, 
		0.3071117401123047f, -0.023171566426753998f, 0.03240533173084259f, -0.14769494533538818f, -0.10223963111639023f, 
		-0.06208287924528122f, 0.20389126241207123f, -0.12543362379074097f, -0.011278210207819939f, -0.21129068732261658f, 
		-0.17500732839107513f, 0.11750096082687378f, 0.09003502875566483f, 0.16156785190105438f, 0.13555262982845306f, 
		0.06575534492731094f, -0.14316923916339874f, 0.05427137762308121f, -0.23159702122211456f, -0.1757029891014099f, 
		-0.18243783712387085f, 0.02727404236793518f, 0.027622351422905922f, -0.11578470468521118f, 0.08509692549705505f, 
		-0.14248180389404297f, -0.05324031785130501f, -0.09629034250974655f, 0.03449542820453644f, 0.090247742831707f, 
		0.10754647105932236f, -0.018974600359797478f, 0.1541682332754135f, 0.05417472496628761f, 0.050601135939359665f, 
		-0.1917068362236023f, -0.17123465240001678f, -0.16777458786964417f, 0.17592056095600128f, -0.1897938847541809f, 
		0.09925086051225662f, -0.0928775817155838f, -0.11010061204433441f, 0.04912472143769264f, -0.03142818436026573f, 
		0.03823702782392502f, 0.017092952504754066f, 0.0968637466430664f, -0.1261315792798996f, 0.017681727185845375f, 
		-0.031827427446842194f, -0.2646995782852173f, -0.18785224854946136f, 0.019308386370539665f, -0.004322982858866453f, 
		-0.11885678768157959f, 0.10370303690433502f, -0.1596277952194214f, -0.04675279185175896f, -0.10368061810731888f, 
		-0.1777864396572113f, 0.1366170197725296f, 0.04418597370386124f, -0.016671571880578995f, 0.09424858540296555f, 
		0.042722541838884354f, 0.054273199290037155f, -0.24833494424819946f, -0.11824265867471695f, 0.03135918453335762f, 
		-0.004216537810862064f, 0.010087472386658192f, 0.11022797971963882f, -0.13556009531021118f, 0.01212349720299244f, 
		0.10163537412881851f, 0.04998386278748512f, -0.006544938776642084f, 0.05199836567044258f, -0.03754233568906784f, 
		-0.10563548654317856f, 0.07468435913324356f, -0.0034176309127360582f, -0.09540250897407532f, -0.1815376877784729f, 
		0.007359908428043127f, 0.1911991983652115f, -0.06417501717805862f, -0.06900199502706528f, -0.07426238059997559f, 
		-0.08071888983249664f, 0.022483933717012405f, -0.08561099320650101f, 0.11678020656108856f, 0.03201765939593315f, 
		0.02984398789703846f, 0.10389602929353714f, -0.09508402645587921f, 0.10828110575675964f, 0.005978172179311514f, 
		-0.056468065828084946f, -0.057693738490343094f, -0.01717608980834484f, -0.1122872605919838f, -0.0071420567110180855f, 
		-0.1047823578119278f, -0.1266576498746872f, -0.10467387735843658f, 0.05729800462722778f, 0.013149138540029526f, 
		-0.03860287368297577f, 0.09234590828418732f, 0.028320595622062683f, -0.038979120552539825f, -0.05800413340330124f, 
		-0.021827345713973045f, -0.11858545988798141f, 0.06792586296796799f, 0.04013033211231232f, 0.03703129291534424f, 
		-0.03301101550459862f, 0.07142017781734467f, -0.07158312201499939f, 0.024359989911317825f, 0.06167243793606758f, 
		0.06135132536292076f, 0.01673690788447857f, -0.08652536571025848f, 0.1218087449669838f, -0.038119588047266006f, 
		0.07476267218589783f, -0.04943855106830597f, -0.05941899120807648f, 0.03872176632285118f, -0.04914799705147743f, 
		-0.0669822096824646f, 0.06157565861940384f, -0.11184721440076828f, -0.11733778566122055f, -0.0255273450165987f, 
		0.13688673079013824f, -0.016137082129716873f, -0.041711341589689255f, -0.03092288412153721f, -0.10373276472091675f, 
		0.08328969776630402f, -0.09849881380796432f, 0.03613748773932457f, -0.09232518821954727f, -0.03748990595340729f, 
		0.09620901197195053f, 0.11935026943683624f, 0.10972318798303604f, 0.08008050173521042f, 0.04658015817403793f, 
		0.034235335886478424f, 0.09055634588003159f, 0.06458090245723724f, -0.07086692750453949f, -0.05113070830702782f, 
		0.06888367235660553f, 0.03980701416730881f, 0.003277823328971863f, 0.05915180593729019f, 0.04825552552938461f, 
		0.04825779050588608f, 0.026750348508358f, -0.0547347292304039f, -0.015200726687908173f, -0.05868300050497055f, 
		-0.0010233595967292786f, -0.07997588068246841f, 0.05787307769060135f, -0.02611158788204193f, -0.02254480868577957f, 
		-0.015575289726257324f, -0.011134028434753418f, 0.010853350162506104f, 0.06709358841180801f, 0.08259914070367813f, 
		0.019601859152317047f, -0.06229124218225479f, -0.082769013941288f, -0.06959115713834763f, -0.036329735070466995f, 
		0.053351737558841705f, 0.0024634450674057007f, -0.07764047384262085f, 0.051065050065517426f, -0.030137628316879272f, 
		0.014388851821422577f, 0.0234026238322258f, -0.06675180047750473f, 0.05410907417535782f, -0.03427844122052193f, 
		-0.046331681311130524f, -0.023003369569778442f, -0.05248449370265007f, 0.05396551638841629f, 0.005608320236206055f, 
		0.011900991201400757f, -0.020685464143753052f, -0.016215503215789795f, -0.05204011872410774f, 0.0257120281457901f, 
		-0.02486647292971611f, 0.04712148755788803f, 0.04561028629541397f, 0.02085012197494507f, 0.08030446618795395f, 
		0.027972213923931122f, -0.010197825729846954f, -0.0012475848197937012f, -0.07964243739843369f, 0.02403365820646286f, 
		0.07278066128492355f, 0.047934986650943756f, 0.03250345587730408f, 0.004803493618965149f, -0.02027202397584915f, 
		-0.010105393826961517f, 0.0709475502371788f, 0.024617299437522888f, 0.02244916558265686f, 0.00011266767978668213f, 
		-0.05430581793189049f, -0.08509830385446548f, 0.02212117239832878f, 0.03900226950645447f, -0.011906296014785767f, 
		0.03677993267774582f, -0.101436547935009f, -0.018249988555908203f, 0.10192863643169403f, -0.016331620514392853f, 
		-0.03274395316839218f, 0.0003625483368523419f, -0.08741013705730438f, 0.0989292785525322f, 0.01813274808228016f, 
		-0.049060408025979996f, -0.007475530728697777f, 0.10786686092615128f, -0.004156820476055145f, -0.06856123358011246f, 
		0.05035562440752983f, -0.09250088781118393f, 0.017934199422597885f, -0.05074608698487282f, 0.005862057209014893f, 
		-0.01906377077102661f, 0.012218081392347813f, -0.059664301574230194f, -0.04942585527896881f, 0.05221477523446083f, 
		0.06372780352830887f, -0.04103432968258858f, -0.014554767869412899f, -0.08311134576797485f, -0.016484122723340988f, 
		0.1065104603767395f, 0.01304764673113823f, -0.02765391580760479f, -0.007825374603271484f, 0.0324845016002655f, 
		0.10739284008741379f, 0.035185523331165314f, -0.030887722969055176f, -0.01269050594419241f, -0.05119074508547783f, 
		0.003260257188230753f, -0.009714256972074509f, -0.049826327711343765f, 0.02250724285840988f, 0.13347338140010834f, 
		-0.024405939504504204f, 0.06697303056716919f, -0.054229140281677246f, -0.12907639145851135f, 0.10757210850715637f, 
		0.012551695108413696f, -0.027679534628987312f, 0.020598657429218292f, -0.07410098612308502f, 0.038775283843278885f, 
		0.005087248049676418f, 0.04151363670825958f, 0.020765040069818497f, -0.05146527290344238f, 0.011626224964857101f, 
		-0.011305999010801315f, 0.10780332237482071f, 0.0947786420583725f, 0.08691766858100891f, -0.06782915443181992f, 
		-0.05733409896492958f, 0.00801630225032568f, 0.10836619883775711f, 0.07479667663574219f, 0.08938382565975189f, 
		0.1144300252199173f, 0.011968782171607018f, -0.011231577955186367f, -0.02693450078368187f, -0.09977968782186508f, 
		-0.013319090940058231f, 0.06673452258110046f, -0.005720730405300856f, -0.020270265638828278f, 0.06631851196289062f, 
		-0.1359979808330536f, -0.03665974736213684f, -0.009316234849393368f, -0.14939704537391663f, -0.0282246433198452f, 
		-0.06388276815414429f, -0.11524710804224014f, -0.009215548634529114f, -0.0075243753381073475f, 0.16777949035167694f, 
		0.05135706439614296f, 0.06019899621605873f, -0.14460527896881104f, 0.10237235575914383f, 0.041079092770814896f, 
		-0.04502850025892258f, 0.020322084426879883f, -0.15034274756908417f, 0.035574860870838165f, 0.17396722733974457f, 
		0.06996501982212067f, 0.07430435717105865f, 0.020933972671628f, -0.07104336470365524f, -0.1255781352519989f, 
		-0.003133075311779976f, 0.04909363389015198f, 0.09620850533246994f, -0.03615729510784149f, -0.24746519327163696f, 
		-0.04353874921798706f, 0.10607457160949707f, -0.00484205037355423f, -0.0657726526260376f, 0.060574036091566086f, 
		-0.18022283911705017f, -0.02898430824279785f, -0.005041179712861776f, -0.04835864156484604f, 0.017315052449703217f, 
		0.03130647912621498f, 0.062010541558265686f, 0.09133819490671158f, 0.04215959087014198f, -0.14985878765583038f, 
		0.14650805294513702f, 0.0026543941348791122f, 0.009266731329262257f, -0.013637793250381947f, -0.12098603695631027f, 
		-0.0943523719906807f, 0.2782347500324249f, 0.0724414736032486f, 0.050684865564107895f, -0.053948335349559784f, 
		-0.09594330936670303f, 0.04964403808116913f, -0.020203128457069397f, -0.13092666864395142f, 0.10641258209943771f, 
		-0.07506363093852997f, -0.01831570640206337f, 0.036824461072683334f, 0.004970693960785866f, -0.01608181931078434f, 
		-0.021262554451823235f, -0.05220015347003937f, -0.22354722023010254f, 0.04305984824895859f, -0.20300686359405518f, 
		-0.09247541427612305f, -0.12120141088962555f, -0.0048663015477359295f, 0.010501011274755001f, 0.010891414247453213f, 
		0.032514799386262894f, -0.10775917023420334f, 0.0338129922747612f, -0.23955653607845306f, 0.0341857485473156f, 
		-0.13188034296035767f, -0.14827170968055725f, -0.09927663207054138f, 0.18424400687217712f, 0.08104067295789719f, 
		-0.00412394804880023f, 0.06635218858718872f, -0.13919994235038757f, -0.06791998445987701f, -0.051291897892951965f, 
		0.025727801024913788f, 0.0190187506377697f, 0.07114339619874954f, 0.038549553602933884f, -0.03751663491129875f, 
		0.0633465126156807f, 0.010468650609254837f, 0.026731379330158234f, -0.08593478798866272f, -0.14023450016975403f, 
		-0.03233378753066063f, -0.18105751276016235f, -0.2479560226202011f, -0.038205258548259735f, 0.052709609270095825f, 
		-0.014901171438395977f, 0.014580621384084225f, 0.07936008274555206f, -0.05422590672969818f, 0.03607938066124916f, 
		-0.15125730633735657f, 0.11963207274675369f, -0.09285098314285278f, -0.0966980829834938f, -0.1116839274764061f, 
		0.12966370582580566f, 0.0004796776920557022f, -0.028262756764888763f, 0.07423365861177444f, -0.017199430614709854f, 
		0.025016313418745995f, -0.1055174171924591f, -0.06856952607631683f, 0.014178273268043995f, -0.022754386067390442f, 
		-0.14030277729034424f, 0.017289254814386368f, 0.08910620212554932f, -0.003945944365113974f, 0.10042943805456161f, 
		-0.041266441345214844f, -0.18708311021327972f, -0.0525929294526577f, -0.008854451589286327f, -0.2723965644836426f, 
		-0.1037566214799881f, -0.0328148677945137f, 0.03335506096482277f, 0.17032268643379211f, -0.0015160087496042252f, 
		-0.007588306441903114f, 0.04584022983908653f, -0.17900127172470093f, 0.08016710728406906f, -0.05711749568581581f, 
		-0.1590595841407776f, -0.13477078080177307f, 0.21441800892353058f, 0.03992380201816559f, 0.0471000149846077f, 
		0.035354699939489365f, -0.06381009519100189f, -0.19444763660430908f, -0.14354091882705688f, -0.0033054002560675144f, 
		0.036920249462127686f, 0.07192143052816391f, -0.051485951989889145f, -0.0041244556196033955f, 0.020900117233395576f, 
		0.03288261219859123f, 0.0018554208800196648f, -0.029738478362560272f, -0.1851242184638977f, 0.07014045119285583f, 
		-0.059039920568466187f, -0.15259386599063873f, -0.044951703399419785f, -0.052689213305711746f, -0.1323785036802292f, 
		0.014593811705708504f, 0.05502767860889435f, 0.03045162931084633f, 0.0028684039134532213f, -0.16913045942783356f, 
		0.05195583030581474f, -0.07565287500619888f, -0.17045342922210693f, -0.2191276103258133f, 0.14426134526729584f, 
		0.09075471758842468f, -0.019878042861819267f, 0.037009526044130325f, 0.10877225548028946f, -0.14949694275856018f, 
		-0.037467870861291885f, -0.040642861276865005f, 0.1140405610203743f, 0.18156765401363373f, -0.020972127094864845f, 
		-0.08961177617311478f, -0.12114987522363663f, 0.02405829168856144f, 0.1065726950764656f, 0.03329570218920708f, 
		-0.08232032507658005f, -0.008979715406894684f, -0.14837653934955597f, -0.32739460468292236f, 0.04044623300433159f, 
		0.061219435185194016f, -0.024917852133512497f, 0.11985282599925995f, -0.028227975592017174f, 0.1147967278957367f, 
		0.10706590861082077f, -0.14179909229278564f, -0.021884193643927574f, -0.1177358403801918f, 0.004395608324557543f, 
		-0.11376745998859406f, 0.0993577390909195f, 0.01256377249956131f, 0.05784573405981064f, 0.047585904598236084f, 
		0.020811282098293304f, -0.21139386296272278f, 0.0002790772414300591f, -0.13935460150241852f, 0.00543155986815691f, 
		0.16073279082775116f, -0.007400468457490206f, 0.009453070349991322f, 0.041354771703481674f, 0.07602088153362274f, 
		0.10408732295036316f, -0.01970103196799755f, 0.009451872669160366f, -0.011037473566830158f, -0.11863207817077637f, 
		-0.2424042820930481f, -0.019832782447338104f, 0.06566767394542694f, 0.024784531444311142f, 0.1621648222208023f, 
		0.04976398125290871f, 0.17883162200450897f, 0.05256832763552666f, -0.17202475666999817f, 0.031588032841682434f, 
		-0.2236945629119873f, 0.0356268472969532f, -0.07831932604312897f, 0.1781512051820755f, 0.07191424071788788f, 
		0.06552757322788239f, 0.005345424171537161f, 0.03195752203464508f, -0.1635318547487259f, -0.0668385699391365f, 
		-0.04948130249977112f, -0.011600603349506855f, 0.051491521298885345f, 0.05354389548301697f, -0.02860163524746895f, 
		-0.005786746274679899f, -0.001234629424288869f, 0.1273125261068344f, -0.00577952666208148f, -0.0331527441740036f, 
		0.0185354296118021f, -0.10966718941926956f, -0.18543741106987f, 0.0051900465041399f, 0.02410835586488247f, 
		0.026249723508954048f, 0.03064565733075142f, -0.005565185099840164f, 0.10794147849082947f, 0.10153418779373169f, 
		-0.1468660682439804f, 0.019714882597327232f, -0.08735588937997818f, 0.019044462591409683f, -0.20012137293815613f, 
		0.11891315132379532f, -0.0006249492289498448f, -0.02819148264825344f, -0.053096409887075424f, 0.06061140075325966f, 
		-0.036259640008211136f, -0.031165214255452156f, 0.04818221554160118f, 0.038151755928993225f, 0.11640612035989761f, 
		0.053495485335588455f, 0.06007198244333267f, -0.11130393296480179f, 0.05454377830028534f, 0.090212382376194f, 
		0.07182703167200089f, 0.010603130795061588f, 0.03272325173020363f, -0.09077956527471542f, -0.2649018466472626f, 
		-0.05207133665680885f, 0.16331630945205688f, 0.029592208564281464f, 0.08582373708486557f, 0.038531992584466934f, 
		-0.00046002937597222626f, 0.17521275579929352f, -0.11139103770256042f, 0.07291071861982346f, -0.07938884943723679f, 
		-0.087824247777462f, -0.08546794950962067f, 0.16867627203464508f, 0.15508270263671875f, 0.10428284853696823f, 
		0.06885645538568497f, -0.01745198480784893f, -0.0362863726913929f, -0.06252340972423553f, 0.09125488251447678f, 
		0.0531747005879879f, 0.07162986695766449f, -0.0042305742390453815f, -0.04384969174861908f, -0.11764280498027802f, 
		-0.014481651596724987f, 0.0953546017408371f, 0.042036429047584534f, -0.05071032792329788f, -0.04711614176630974f, 
		-0.023927835747599602f, -0.28715699911117554f, 0.011142533272504807f, 0.13833656907081604f, -0.028246890753507614f, 
		0.06105313077569008f, -0.07730458676815033f, 0.14365415275096893f, 0.15644636750221252f, -0.03637252002954483f, 
		0.043293070048093796f, -0.168099045753479f, 0.03800247609615326f, -0.14349590241909027f, 0.09737304598093033f, 
		0.03198670968413353f, 0.02220524102449417f, 0.041910793632268906f, 0.07074113935232162f, 0.03255129233002663f, 
		-0.009704671800136566f, -0.06836705654859543f, 0.017557378858327866f, 0.010531524196267128f, 0.01791302114725113f, 
		0.05876675248146057f, -0.11981625109910965f, 0.09796040505170822f, 0.03464853763580322f, 0.0775684043765068f, 
		0.07290039211511612f, 0.010714101605117321f, -0.06619961559772491f, -0.2131361961364746f, 0.09901522845029831f, 
		0.12685781717300415f, -0.032064419239759445f, 0.1273525506258011f, -0.02783438377082348f, 0.24461527168750763f, 
		0.09548985958099365f, -0.11072377860546112f, 0.06795267760753632f, -0.07714559882879257f, -0.010166380554437637f, 
		-0.17743532359600067f, 0.07900308817625046f, 0.02742519974708557f, 0.05688202753663063f, -0.04939006641507149f, 
		0.013210210017859936f, -0.07399270683526993f, -0.1285383254289627f, 0.03631705790758133f, -0.07881122082471848f, 
		0.05406375229358673f, -0.08963453769683838f, 0.16303104162216187f, -0.10453984141349792f, 0.0928855687379837f, 
		0.10693880170583725f, -0.0016925610834732652f, 0.09937117248773575f, 0.01641775295138359f, 0.04993050545454025f, 
		-0.16715654730796814f, 0.08443798869848251f, 0.10803345590829849f, 0.07999817281961441f, 0.08796227723360062f, 
		-0.05236244574189186f, 0.14781732857227325f, 0.059373971074819565f, 0.0002977658878080547f, -0.03843111917376518f, 
		-0.11117586493492126f, -0.057960499078035355f, -0.015057939104735851f, -0.09574131667613983f, 0.09056252241134644f, 
		0.0948067456483841f, -0.008395173586905003f, 0.10922637581825256f, -0.021826429292559624f, -0.1050901710987091f, 
		-0.06413975358009338f, 0.014890455640852451f, 0.10433338582515717f, -0.062155429273843765f, 0.14154474437236786f, 
		-0.13929608464241028f, 0.11020810902118683f, 0.09060193598270416f, 0.041067030280828476f, 0.05348382890224457f, 
		-0.056294411420822144f, 0.00046819981071166694f, -0.09160314500331879f, 0.06773889064788818f, 0.20315863192081451f, 
		0.035705987364053726f, 0.232417494058609f, 0.056437864899635315f, 0.22381368279457092f, 0.0316164456307888f, 
		-0.04992087185382843f, 0.0017314145807176828f, -0.07356707006692886f, -0.0072696940042078495f, -0.11703503876924515f, 
		-0.12903279066085815f, 0.05716546252369881f, 0.025727923959493637f, -0.02912587858736515f, 0.13227872550487518f, 
		0.012309069745242596f, -0.011373069137334824f, 0.024426743388175964f, -0.06328704953193665f, 0.0318678617477417f, 
		-0.08267506957054138f, 0.1412779986858368f, -0.23280662298202515f, 0.06872164458036423f, 0.11814962327480316f, 
		0.04278690740466118f, -0.08225259929895401f, 0.023006834089756012f, 0.04923582077026367f, -0.11229219287633896f, 
		0.03692151606082916f, 0.03360776975750923f, 0.05972866714000702f, 0.19066476821899414f, -0.06642521917819977f, 
		0.13503076136112213f, 0.07898643612861633f, -0.036312285810709f, -0.015982352197170258f, -0.06533169001340866f, 
		0.016145844012498856f, 0.06494887173175812f, -0.045904479920864105f, -0.0027981370221823454f, 0.10040497779846191f, 
		0.030701572075486183f, 0.06706049293279648f, 0.0002615328412503004f, -0.0341225266456604f, -0.03151228651404381f, 
		-0.09689158946275711f, -0.04364762455224991f, -0.05163734033703804f, 0.13333182036876678f, -0.11725454777479172f, 
		-0.00296480068936944f, 0.08910319209098816f, 0.03532788157463074f, -0.08525999635457993f, 0.0627940446138382f, 
		0.07509919255971909f, 0.011687587946653366f, 0.07757936418056488f, 0.0892430767416954f, 0.04097430780529976f, 
		0.1558842957019806f, 0.05545232445001602f, 0.03711545839905739f, 0.03790038451552391f, -0.07204964011907578f, 
		0.020353037863969803f, -0.03391648456454277f, -0.10688052326440811f, 0.125311478972435f, -0.17856885492801666f, 
		-0.0382816456258297f, 0.08053363859653473f, 0.09169227629899979f, 0.026955101639032364f, -0.022488877177238464f, 
		-0.06757425516843796f, 0.025845829397439957f, -0.05426785722374916f, -0.01717579923570156f, -0.03772778436541557f, 
		0.08004524558782578f, -0.030507680028676987f, -0.04180680960416794f, 0.03907497599720955f, -0.00877711083739996f, 
		-0.076695516705513f, -0.09091618657112122f, 0.05604540556669235f, 0.018212856724858284f, -0.02234203740954399f, 
		0.1538696587085724f, -0.053737785667181015f, 0.07360292226076126f, 0.049157898873090744f, -0.04830794036388397f, 
		-0.11519177258014679f, 0.02314385026693344f, 0.005531319882720709f, 0.07762765139341354f, -0.10193803906440735f, 
		0.13931335508823395f, -0.21890446543693542f, -0.0546351857483387f, 0.10354605317115784f, 0.10766075551509857f, 
